<?xml version="1.0"?>
<MethodSetup Method="BDT::BDT">
  <GeneralInfo>
    <Info name="TMVA Release" value="4.1.2 [262402]"/>
    <Info name="ROOT Release" value="5.32/00 [335872]"/>
    <Info name="Creator" value="ytakahas"/>
    <Info name="Date" value="Thu Sep 18 12:23:18 2014"/>
    <Info name="Host" value="Linux lxbuild168.cern.ch 2.6.18-308.16.1.el5 #1 SMP Thu Oct 4 14:02:28 CEST 2012 x86_64 x86_64 x86_64 GNU/Linux"/>
    <Info name="Dir" value="/afs/cern.ch/work/y/ytakahas/htautau_2014/CMSSW_5_3_14/src/CMGTools/H2TauTau/EMuTau/analysis/training"/>
    <Info name="Training events" value="2661"/>
    <Info name="TrainingTime" value="2.65242314e+00"/>
    <Info name="AnalysisType" value="Classification"/>
  </GeneralInfo>
  <Options>
    <Option name="V" modified="Yes">False</Option>
    <Option name="VerbosityLevel" modified="No">Default</Option>
    <Option name="VarTransform" modified="No">None</Option>
    <Option name="H" modified="Yes">False</Option>
    <Option name="CreateMVAPdfs" modified="No">False</Option>
    <Option name="IgnoreNegWeightsInTraining" modified="No">False</Option>
    <Option name="NTrees" modified="Yes">850</Option>
    <Option name="RenormByClass" modified="No">False</Option>
    <Option name="BoostType" modified="Yes">AdaBoost</Option>
    <Option name="AdaBoostR2Loss" modified="No">quadratic</Option>
    <Option name="UseBaggedGrad" modified="No">False</Option>
    <Option name="GradBaggingFraction" modified="No">6.000000e-01</Option>
    <Option name="Shrinkage" modified="No">1.000000e+00</Option>
    <Option name="AdaBoostBeta" modified="Yes">5.000000e-01</Option>
    <Option name="UseRandomisedTrees" modified="No">False</Option>
    <Option name="UseNvars" modified="No">3</Option>
    <Option name="UsePoissonNvars" modified="No">True</Option>
    <Option name="UseNTrainEvents" modified="No">2661</Option>
    <Option name="UseWeightedTrees" modified="No">True</Option>
    <Option name="UseYesNoLeaf" modified="No">True</Option>
    <Option name="NodePurityLimit" modified="No">5.000000e-01</Option>
    <Option name="SeparationType" modified="Yes">giniindex</Option>
    <Option name="nEventsMin" modified="Yes">150</Option>
    <Option name="nCuts" modified="Yes">20</Option>
    <Option name="UseFisherCuts" modified="No">False</Option>
    <Option name="MinLinCorrForFisher" modified="No">8.000000e-01</Option>
    <Option name="UseExclusiveVars" modified="No">False</Option>
    <Option name="PruneStrength" modified="No">0.000000e+00</Option>
    <Option name="PruneMethod" modified="Yes">nopruning</Option>
    <Option name="PruneBeforeBoost" modified="No">False</Option>
    <Option name="PruningValFraction" modified="No">5.000000e-01</Option>
    <Option name="NNodesMax" modified="No">100000</Option>
    <Option name="MaxDepth" modified="Yes">3</Option>
    <Option name="DoBoostMonitor" modified="No">False</Option>
    <Option name="NegWeightTreatment" modified="No">inverseboostnegweights</Option>
  </Options>
  <Variables NVar="7">
    <Variable VarIndex="0" Expression="bdt_muon_dxy" Label="bdt_muon_dxy" Title="bdt_muon_dxy" Unit="" Internal="bdt_muon_dxy" Type="F" Min="-1.43374777e+01" Max="-1.64467633e+00"/>
    <Variable VarIndex="1" Expression="bdt_muon_dz" Label="bdt_muon_dz" Title="bdt_muon_dz" Unit="" Internal="bdt_muon_dz" Type="F" Min="-1.25074053e+01" Max="-1.61953330e+00"/>
    <Variable VarIndex="2" Expression="bdt_muon_mva_ch_iso" Label="bdt_muon_mva_ch_iso" Title="bdt_muon_mva_ch_iso" Unit="" Internal="bdt_muon_mva_ch_iso" Type="F" Min="0.00000000e+00" Max="2.88819313e+01"/>
    <Variable VarIndex="3" Expression="bdt_muon_mva_neu_iso" Label="bdt_muon_mva_neu_iso" Title="bdt_muon_mva_neu_iso" Unit="" Internal="bdt_muon_mva_neu_iso" Type="F" Min="0.00000000e+00" Max="2.14197598e+01"/>
    <Variable VarIndex="4" Expression="bdt_muon_mva_jet_dr" Label="bdt_muon_mva_jet_dr" Title="bdt_muon_mva_jet_dr" Unit="" Internal="bdt_muon_mva_jet_dr" Type="F" Min="2.45920062e-04" Max="5.00000000e-01"/>
    <Variable VarIndex="5" Expression="bdt_muon_mva_ptratio" Label="bdt_muon_mva_ptratio" Title="bdt_muon_mva_ptratio" Unit="" Internal="bdt_muon_mva_ptratio" Type="F" Min="1.82107911e-02" Max="1.50000000e+00"/>
    <Variable VarIndex="6" Expression="bdt_muon_mva_csv" Label="bdt_muon_mva_csv" Title="bdt_muon_mva_csv" Unit="" Internal="bdt_muon_mva_csv" Type="F" Min="0.00000000e+00" Max="9.97888863e-01"/>
  </Variables>
  <Spectators NSpec="0"/>
  <Classes NClass="2">
    <Class Name="Signal" Index="0"/>
    <Class Name="Background" Index="1"/>
  </Classes>
  <Transformations NTransformations="0"/>
  <MVAPdfs/>
  <Weights NTrees="850" AnalysisType="0">
    <BinaryTree type="DecisionTree" boostWeight="1.4147177208806041e+00" itree="0">
      <Node pos="s" depth="0" NCoef="0" IVar="5" Cut="6.5326333045959473e-01" cType="0" res="-9.9000000000000000e+01" rms="0.0000000000000000e+00" purity="3.4919020533561707e-01" nType="0">
        <Node pos="l" depth="1" NCoef="0" IVar="-1" Cut="7.7472728490829468e-01" cType="0" res="-9.9000000000000000e+01" rms="0.0000000000000000e+00" purity="9.2922967672348022e-01" nType="1"/>
        <Node pos="r" depth="1" NCoef="0" IVar="-1" Cut="5.3161782026290894e-01" cType="0" res="-9.9000000000000000e+01" rms="0.0000000000000000e+00" purity="4.7955695539712906e-02" nType="-1"/>
      </Node>
    </BinaryTree>
    <BinaryTree type="DecisionTree" boostWeight="1.1110972607274827e+00" itree="1">
      <Node pos="s" depth="0" NCoef="0" IVar="5" Cut="5.1214051246643066e-01" cType="0" res="-9.9000000000000000e+01" rms="0.0000000000000000e+00" purity="3.8129344582557678e-01" nType="0">
        <Node pos="l" depth="1" NCoef="0" IVar="2" Cut="9.7637213766574860e-02" cType="1" res="-9.9000000000000000e+01" rms="0.0000000000000000e+00" purity="7.0925617218017578e-01" nType="0">
          <Node pos="l" depth="2" NCoef="0" IVar="-1" Cut="1.8328402191400528e-02" cType="1" res="-9.9000000000000000e+01" rms="0.0000000000000000e+00" purity="9.0529119968414307e-01" nType="1"/>
          <Node pos="r" depth="2" NCoef="0" IVar="-1" Cut="0.0000000000000000e+00" cType="1" res="-9.9000000000000000e+01" rms="0.0000000000000000e+00" purity="2.2185373306274414e-01" nType="-1"/>
        </Node>
        <Node pos="r" depth="1" NCoef="0" IVar="-1" Cut="9.6794813871383667e-02" cType="0" res="-9.9000000000000000e+01" rms="0.0000000000000000e+00" purity="6.5623536705970764e-02" nType="-1"/>
      </Node>
    </BinaryTree>
    <BinaryTree type="DecisionTree" boostWeight="6.5708909292490747e-01" itree="2">
      <Node pos="s" depth="0" NCoef="0" IVar="5" Cut="5.1214051246643066e-01" cType="0" res="-9.9000000000000000e+01" rms="0.0000000000000000e+00" purity="4.2779541015625000e-01" nType="0">
        <Node pos="l" depth="1" NCoef="0" IVar="3" Cut="6.2718480825424194e-02" cType="1" res="-9.9000000000000000e+01" rms="0.0000000000000000e+00" purity="6.6197854280471802e-01" nType="0">
          <Node pos="l" depth="2" NCoef="0" IVar="-1" Cut="4.7876227647066116e-02" cType="1" res="-9.9000000000000000e+01" rms="0.0000000000000000e+00" purity="7.9698473215103149e-01" nType="1"/>
          <Node pos="r" depth="2" NCoef="0" IVar="-1" Cut="0.0000000000000000e+00" cType="1" res="-9.9000000000000000e+01" rms="0.0000000000000000e+00" purity="3.4444496035575867e-01" nType="-1"/>
        </Node>
        <Node pos="r" depth="1" NCoef="0" IVar="-1" Cut="9.6794813871383667e-02" cType="0" res="-9.9000000000000000e+01" rms="0.0000000000000000e+00" purity="1.7583164572715759e-01" nType="-1"/>
      </Node>
    </BinaryTree>
    <BinaryTree type="DecisionTree" boostWeight="5.2244899866756123e-01" itree="3">
      <Node pos="s" depth="0" NCoef="0" IVar="5" Cut="8.6494749784469604e-01" cType="0" res="-9.9000000000000000e+01" rms="0.0000000000000000e+00" purity="4.6456229686737061e-01" nType="0">
        <Node pos="l" depth="1" NCoef="0" IVar="-1" Cut="2.0052511990070343e-01" cType="1" res="-9.9000000000000000e+01" rms="0.0000000000000000e+00" purity="8.9144873619079590e-01" nType="1"/>
        <Node pos="r" depth="1" NCoef="0" IVar="3" Cut="1.0199885368347168e+00" cType="1" res="-9.9000000000000000e+01" rms="0.0000000000000000e+00" purity="3.8324216008186340e-01" nType="0">
          <Node pos="l" depth="2" NCoef="0" IVar="2" Cut="4.5518207550048828e-01" cType="1" res="-9.9000000000000000e+01" rms="0.0000000000000000e+00" purity="4.4273051619529724e-01" nType="0">
            <Node pos="l" depth="3" NCoef="0" IVar="-1" Cut="0.0000000000000000e+00" cType="1" res="-9.9000000000000000e+01" rms="0.0000000000000000e+00" purity="5.8260875940322876e-01" nType="1"/>
            <Node pos="r" depth="3" NCoef="0" IVar="-1" Cut="0.0000000000000000e+00" cType="1" res="-9.9000000000000000e+01" rms="0.0000000000000000e+00" purity="1.7295725643634796e-01" nType="-1"/>
          </Node>
          <Node pos="r" depth="2" NCoef="0" IVar="-1" Cut="-6.0522069931030273e+00" cType="1" res="-9.9000000000000000e+01" rms="0.0000000000000000e+00" purity="1.1156898690387607e-03" nType="-1"/>
        </Node>
      </Node>
    </BinaryTree>
    <BinaryTree type="DecisionTree" boostWeight="4.3502196809641647e-01" itree="4">
      <Node pos="s" depth="0" NCoef="0" IVar="5" Cut="8.6494749784469604e-01" cType="0" res="-9.9000000000000000e+01" rms="0.0000000000000000e+00" purity="4.1924890875816345e-01" nType="0">
        <Node pos="l" depth="1" NCoef="0" IVar="-1" Cut="2.0052511990070343e-01" cType="1" res="-9.9000000000000000e+01" rms="0.0000000000000000e+00" purity="8.2965391874313354e-01" nType="1"/>
        <Node pos="r" depth="1" NCoef="0" IVar="4" Cut="4.9358915537595749e-02" cType="0" res="-9.9000000000000000e+01" rms="0.0000000000000000e+00" purity="3.4915030002593994e-01" nType="0">
          <Node pos="l" depth="2" NCoef="0" IVar="3" Cut="1.0199885368347168e+00" cType="1" res="-9.9000000000000000e+01" rms="0.0000000000000000e+00" purity="4.6801263093948364e-01" nType="0">
            <Node pos="l" depth="3" NCoef="0" IVar="-1" Cut="0.0000000000000000e+00" cType="1" res="-9.9000000000000000e+01" rms="0.0000000000000000e+00" purity="5.3012311458587646e-01" nType="1"/>
            <Node pos="r" depth="3" NCoef="0" IVar="-1" Cut="0.0000000000000000e+00" cType="1" res="-9.9000000000000000e+01" rms="0.0000000000000000e+00" purity="2.9288206715136766e-03" nType="-1"/>
          </Node>
          <Node pos="r" depth="2" NCoef="0" IVar="-1" Cut="5.5754762887954712e-01" cType="0" res="-9.9000000000000000e+01" rms="0.0000000000000000e+00" purity="1.6099448502063751e-01" nType="-1"/>
        </Node>
      </Node>
    </BinaryTree>
    <BinaryTree type="DecisionTree" boostWeight="4.3677439377116078e-01" itree="5">
      <Node pos="s" depth="0" NCoef="0" IVar="6" Cut="3.3262962102890015e-01" cType="1" res="-9.9000000000000000e+01" rms="0.0000000000000000e+00" purity="3.8621580600738525e-01" nType="0">
        <Node pos="l" depth="1" NCoef="0" IVar="5" Cut="8.7116318941116333e-01" cType="0" res="-9.9000000000000000e+01" rms="0.0000000000000000e+00" purity="5.0350761413574219e-01" nType="0">
          <Node pos="l" depth="2" NCoef="0" IVar="-1" Cut="0.0000000000000000e+00" cType="1" res="-9.9000000000000000e+01" rms="0.0000000000000000e+00" purity="1.0000000000000000e+00" nType="1"/>
          <Node pos="r" depth="2" NCoef="0" IVar="2" Cut="7.1075451374053955e-01" cType="1" res="-9.9000000000000000e+01" rms="0.0000000000000000e+00" purity="4.2173281311988831e-01" nType="0">
            <Node pos="l" depth="3" NCoef="0" IVar="-1" Cut="0.0000000000000000e+00" cType="1" res="-9.9000000000000000e+01" rms="0.0000000000000000e+00" purity="5.0364273786544800e-01" nType="1"/>
            <Node pos="r" depth="3" NCoef="0" IVar="-1" Cut="0.0000000000000000e+00" cType="1" res="-9.9000000000000000e+01" rms="0.0000000000000000e+00" purity="1.5110057592391968e-01" nType="-1"/>
          </Node>
        </Node>
        <Node pos="r" depth="1" NCoef="0" IVar="-1" Cut="-6.3510117530822754e+00" cType="0" res="-9.9000000000000000e+01" rms="0.0000000000000000e+00" purity="1.8892334401607513e-01" nType="-1"/>
      </Node>
    </BinaryTree>
    <BinaryTree type="DecisionTree" boostWeight="4.7693626178476761e-01" itree="6">
      <Node pos="s" depth="0" NCoef="0" IVar="5" Cut="8.6494749784469604e-01" cType="0" res="-9.9000000000000000e+01" rms="0.0000000000000000e+00" purity="3.7470635771751404e-01" nType="0">
        <Node pos="l" depth="1" NCoef="0" IVar="-1" Cut="2.0052511990070343e-01" cType="1" res="-9.9000000000000000e+01" rms="0.0000000000000000e+00" purity="7.7194643020629883e-01" nType="1"/>
        <Node pos="r" depth="1" NCoef="0" IVar="4" Cut="1.6794867813587189e-01" cType="0" res="-9.9000000000000000e+01" rms="0.0000000000000000e+00" purity="3.1802040338516235e-01" nType="0">
          <Node pos="l" depth="2" NCoef="0" IVar="-1" Cut="0.0000000000000000e+00" cType="1" res="-9.9000000000000000e+01" rms="0.0000000000000000e+00" purity="6.5796816349029541e-01" nType="1"/>
          <Node pos="r" depth="2" NCoef="0" IVar="-1" Cut="3.8928934931755066e-01" cType="0" res="-9.9000000000000000e+01" rms="0.0000000000000000e+00" purity="2.7867770195007324e-01" nType="-1"/>
        </Node>
      </Node>
    </BinaryTree>
    <BinaryTree type="DecisionTree" boostWeight="3.6655931334739295e-01" itree="7">
      <Node pos="s" depth="0" NCoef="0" IVar="3" Cut="1.0199885368347168e+00" cType="1" res="-9.9000000000000000e+01" rms="0.0000000000000000e+00" purity="4.3444859981536865e-01" nType="0">
        <Node pos="l" depth="1" NCoef="0" IVar="3" Cut="1.4564977586269379e-01" cType="1" res="-9.9000000000000000e+01" rms="0.0000000000000000e+00" purity="4.6569004654884338e-01" nType="0">
          <Node pos="l" depth="2" NCoef="0" IVar="6" Cut="4.7518518567085266e-01" cType="1" res="-9.9000000000000000e+01" rms="0.0000000000000000e+00" purity="5.4551929235458374e-01" nType="0">
            <Node pos="l" depth="3" NCoef="0" IVar="-1" Cut="0.0000000000000000e+00" cType="1" res="-9.9000000000000000e+01" rms="0.0000000000000000e+00" purity="6.1615806818008423e-01" nType="1"/>
            <Node pos="r" depth="3" NCoef="0" IVar="-1" Cut="0.0000000000000000e+00" cType="1" res="-9.9000000000000000e+01" rms="0.0000000000000000e+00" purity="2.5226855278015137e-01" nType="-1"/>
          </Node>
          <Node pos="r" depth="2" NCoef="0" IVar="-1" Cut="7.4174821376800537e-02" cType="0" res="-9.9000000000000000e+01" rms="0.0000000000000000e+00" purity="3.2985746860504150e-01" nType="-1"/>
        </Node>
        <Node pos="r" depth="1" NCoef="0" IVar="-1" Cut="-6.0522069931030273e+00" cType="1" res="-9.9000000000000000e+01" rms="0.0000000000000000e+00" purity="4.0460657328367233e-03" nType="-1"/>
      </Node>
    </BinaryTree>
    <BinaryTree type="DecisionTree" boostWeight="2.5128840679452186e-01" itree="8">
      <Node pos="s" depth="0" NCoef="0" IVar="3" Cut="1.0199885368347168e+00" cType="1" res="-9.9000000000000000e+01" rms="0.0000000000000000e+00" purity="4.3517795205116272e-01" nType="0">
        <Node pos="l" depth="1" NCoef="0" IVar="5" Cut="7.4443441629409790e-01" cType="0" res="-9.9000000000000000e+01" rms="0.0000000000000000e+00" purity="4.6223288774490356e-01" nType="0">
          <Node pos="l" depth="2" NCoef="0" IVar="4" Cut="2.4043733254075050e-02" cType="1" res="-9.9000000000000000e+01" rms="0.0000000000000000e+00" purity="6.1057674884796143e-01" nType="0">
            <Node pos="l" depth="3" NCoef="0" IVar="-1" Cut="0.0000000000000000e+00" cType="1" res="-9.9000000000000000e+01" rms="0.0000000000000000e+00" purity="8.3862900733947754e-01" nType="1"/>
            <Node pos="r" depth="3" NCoef="0" IVar="-1" Cut="0.0000000000000000e+00" cType="1" res="-9.9000000000000000e+01" rms="0.0000000000000000e+00" purity="4.9256694316864014e-01" nType="-1"/>
          </Node>
          <Node pos="r" depth="2" NCoef="0" IVar="4" Cut="5.0517864525318146e-02" cType="0" res="-9.9000000000000000e+01" rms="0.0000000000000000e+00" purity="4.1221928596496582e-01" nType="0">
            <Node pos="l" depth="3" NCoef="0" IVar="-1" Cut="0.0000000000000000e+00" cType="1" res="-9.9000000000000000e+01" rms="0.0000000000000000e+00" purity="5.0348919630050659e-01" nType="1"/>
            <Node pos="r" depth="3" NCoef="0" IVar="-1" Cut="0.0000000000000000e+00" cType="1" res="-9.9000000000000000e+01" rms="0.0000000000000000e+00" purity="1.9370813667774200e-01" nType="-1"/>
          </Node>
        </Node>
        <Node pos="r" depth="1" NCoef="0" IVar="-1" Cut="-6.0522069931030273e+00" cType="1" res="-9.9000000000000000e+01" rms="0.0000000000000000e+00" purity="5.8270706795156002e-03" nType="-1"/>
      </Node>
    </BinaryTree>
    <BinaryTree type="DecisionTree" boostWeight="2.9055072948808930e-01" itree="9">
      <Node pos="s" depth="0" NCoef="0" IVar="5" Cut="7.9438608884811401e-01" cType="0" res="-9.9000000000000000e+01" rms="0.0000000000000000e+00" purity="4.2317360639572144e-01" nType="0">
        <Node pos="l" depth="1" NCoef="0" IVar="6" Cut="1.5203271806240082e-01" cType="0" res="-9.9000000000000000e+01" rms="0.0000000000000000e+00" purity="6.2620556354522705e-01" nType="0">
          <Node pos="l" depth="2" NCoef="0" IVar="5" Cut="9.6272307634353638e-01" cType="1" res="-9.9000000000000000e+01" rms="0.0000000000000000e+00" purity="7.2018384933471680e-01" nType="0">
            <Node pos="l" depth="3" NCoef="0" IVar="-1" Cut="0.0000000000000000e+00" cType="1" res="-9.9000000000000000e+01" rms="0.0000000000000000e+00" purity="8.7227857112884521e-01" nType="1"/>
            <Node pos="r" depth="3" NCoef="0" IVar="-1" Cut="0.0000000000000000e+00" cType="1" res="-9.9000000000000000e+01" rms="0.0000000000000000e+00" purity="4.4606882333755493e-01" nType="-1"/>
          </Node>
          <Node pos="r" depth="2" NCoef="0" IVar="-1" Cut="0.0000000000000000e+00" cType="1" res="-9.9000000000000000e+01" rms="0.0000000000000000e+00" purity="4.5544609427452087e-01" nType="-1"/>
        </Node>
        <Node pos="r" depth="1" NCoef="0" IVar="-1" Cut="1.0199885368347168e+00" cType="1" res="-9.9000000000000000e+01" rms="0.0000000000000000e+00" purity="3.6959052085876465e-01" nType="-1"/>
      </Node>
    </BinaryTree>
    <BinaryTree type="DecisionTree" boostWeight="3.5238081073788630e-01" itree="10">
      <Node pos="s" depth="0" NCoef="0" IVar="3" Cut="1.0199885368347168e+00" cType="1" res="-9.9000000000000000e+01" rms="0.0000000000000000e+00" purity="4.8207765817642212e-01" nType="0">
        <Node pos="l" depth="1" NCoef="0" IVar="2" Cut="4.5518207550048828e-01" cType="1" res="-9.9000000000000000e+01" rms="0.0000000000000000e+00" purity="5.0585097074508667e-01" nType="0">
          <Node pos="l" depth="2" NCoef="0" IVar="2" Cut="2.1602317690849304e-02" cType="1" res="-9.9000000000000000e+01" rms="0.0000000000000000e+00" purity="5.5850875377655029e-01" nType="0">
            <Node pos="l" depth="3" NCoef="0" IVar="-1" Cut="0.0000000000000000e+00" cType="1" res="-9.9000000000000000e+01" rms="0.0000000000000000e+00" purity="8.0005300045013428e-01" nType="1"/>
            <Node pos="r" depth="3" NCoef="0" IVar="-1" Cut="0.0000000000000000e+00" cType="1" res="-9.9000000000000000e+01" rms="0.0000000000000000e+00" purity="4.2856952548027039e-01" nType="-1"/>
          </Node>
          <Node pos="r" depth="2" NCoef="0" IVar="-1" Cut="7.5277797877788544e-02" cType="0" res="-9.9000000000000000e+01" rms="0.0000000000000000e+00" purity="3.4163999557495117e-01" nType="-1"/>
        </Node>
        <Node pos="r" depth="1" NCoef="0" IVar="-1" Cut="-6.0522069931030273e+00" cType="1" res="-9.9000000000000000e+01" rms="0.0000000000000000e+00" purity="9.9758952856063843e-03" nType="-1"/>
      </Node>
    </BinaryTree>
    <BinaryTree type="DecisionTree" boostWeight="3.8434447767206087e-01" itree="11">
      <Node pos="s" depth="0" NCoef="0" IVar="3" Cut="1.0199885368347168e+00" cType="1" res="-9.9000000000000000e+01" rms="0.0000000000000000e+00" purity="5.2688610553741455e-01" nType="0">
        <Node pos="l" depth="1" NCoef="0" IVar="2" Cut="4.5518207550048828e-01" cType="1" res="-9.9000000000000000e+01" rms="0.0000000000000000e+00" purity="5.4950106143951416e-01" nType="0">
          <Node pos="l" depth="2" NCoef="0" IVar="2" Cut="2.1602317690849304e-01" cType="1" res="-9.9000000000000000e+01" rms="0.0000000000000000e+00" purity="5.8942693471908569e-01" nType="0">
            <Node pos="l" depth="3" NCoef="0" IVar="-1" Cut="0.0000000000000000e+00" cType="1" res="-9.9000000000000000e+01" rms="0.0000000000000000e+00" purity="6.5775173902511597e-01" nType="1"/>
            <Node pos="r" depth="3" NCoef="0" IVar="-1" Cut="0.0000000000000000e+00" cType="1" res="-9.9000000000000000e+01" rms="0.0000000000000000e+00" purity="2.5088408589363098e-01" nType="-1"/>
          </Node>
          <Node pos="r" depth="2" NCoef="0" IVar="4" Cut="7.5277797877788544e-02" cType="0" res="-9.9000000000000000e+01" rms="0.0000000000000000e+00" purity="4.2467436194419861e-01" nType="0">
            <Node pos="l" depth="3" NCoef="0" IVar="-1" Cut="0.0000000000000000e+00" cType="1" res="-9.9000000000000000e+01" rms="0.0000000000000000e+00" purity="5.6116628646850586e-01" nType="1"/>
            <Node pos="r" depth="3" NCoef="0" IVar="-1" Cut="0.0000000000000000e+00" cType="1" res="-9.9000000000000000e+01" rms="0.0000000000000000e+00" purity="1.1929640918970108e-01" nType="-1"/>
          </Node>
        </Node>
        <Node pos="r" depth="1" NCoef="0" IVar="-1" Cut="-6.0522069931030273e+00" cType="1" res="-9.9000000000000000e+01" rms="0.0000000000000000e+00" purity="1.4130661264061928e-02" nType="-1"/>
      </Node>
    </BinaryTree>
    <BinaryTree type="DecisionTree" boostWeight="3.2507253037513134e-01" itree="12">
      <Node pos="s" depth="0" NCoef="0" IVar="3" Cut="1.0199885368347168e+00" cType="1" res="-9.9000000000000000e+01" rms="0.0000000000000000e+00" purity="4.7498926520347595e-01" nType="0">
        <Node pos="l" depth="1" NCoef="0" IVar="0" Cut="-5.8893318176269531e+00" cType="1" res="-9.9000000000000000e+01" rms="0.0000000000000000e+00" purity="4.9245926737785339e-01" nType="0">
          <Node pos="l" depth="2" NCoef="0" IVar="6" Cut="2.5878596305847168e-01" cType="1" res="-9.9000000000000000e+01" rms="0.0000000000000000e+00" purity="5.4930716753005981e-01" nType="0">
            <Node pos="l" depth="3" NCoef="0" IVar="-1" Cut="0.0000000000000000e+00" cType="1" res="-9.9000000000000000e+01" rms="0.0000000000000000e+00" purity="6.4212536811828613e-01" nType="1"/>
            <Node pos="r" depth="3" NCoef="0" IVar="-1" Cut="0.0000000000000000e+00" cType="1" res="-9.9000000000000000e+01" rms="0.0000000000000000e+00" purity="1.4862281084060669e-01" nType="-1"/>
          </Node>
          <Node pos="r" depth="2" NCoef="0" IVar="-1" Cut="2.3759259283542633e-01" cType="0" res="-9.9000000000000000e+01" rms="0.0000000000000000e+00" purity="4.0925732254981995e-01" nType="-1"/>
        </Node>
        <Node pos="r" depth="1" NCoef="0" IVar="-1" Cut="-6.0522069931030273e+00" cType="1" res="-9.9000000000000000e+01" rms="0.0000000000000000e+00" purity="2.0616484805941582e-02" nType="-1"/>
      </Node>
    </BinaryTree>
    <BinaryTree type="DecisionTree" boostWeight="2.2080112573424887e-01" itree="13">
      <Node pos="s" depth="0" NCoef="0" IVar="3" Cut="1.0199885368347168e+00" cType="1" res="-9.9000000000000000e+01" rms="0.0000000000000000e+00" purity="4.7968196868896484e-01" nType="0">
        <Node pos="l" depth="1" NCoef="0" IVar="5" Cut="8.8180994987487793e-01" cType="0" res="-9.9000000000000000e+01" rms="0.0000000000000000e+00" purity="4.9507310986518860e-01" nType="0">
          <Node pos="l" depth="2" NCoef="0" IVar="-1" Cut="2.4043733254075050e-02" cType="1" res="-9.9000000000000000e+01" rms="0.0000000000000000e+00" purity="6.9727963209152222e-01" nType="1"/>
          <Node pos="r" depth="2" NCoef="0" IVar="4" Cut="4.9589011818170547e-02" cType="0" res="-9.9000000000000000e+01" rms="0.0000000000000000e+00" purity="4.7441086173057556e-01" nType="0">
            <Node pos="l" depth="3" NCoef="0" IVar="-1" Cut="0.0000000000000000e+00" cType="1" res="-9.9000000000000000e+01" rms="0.0000000000000000e+00" purity="5.4615724086761475e-01" nType="1"/>
            <Node pos="r" depth="3" NCoef="0" IVar="-1" Cut="0.0000000000000000e+00" cType="1" res="-9.9000000000000000e+01" rms="0.0000000000000000e+00" purity="3.3895260095596313e-01" nType="-1"/>
          </Node>
        </Node>
        <Node pos="r" depth="1" NCoef="0" IVar="-1" Cut="-6.0522069931030273e+00" cType="1" res="-9.9000000000000000e+01" rms="0.0000000000000000e+00" purity="2.8311703354120255e-02" nType="-1"/>
      </Node>
    </BinaryTree>
    <BinaryTree type="DecisionTree" boostWeight="2.0192764978377628e-01" itree="14">
      <Node pos="s" depth="0" NCoef="0" IVar="3" Cut="1.0199885368347168e+00" cType="1" res="-9.9000000000000000e+01" rms="0.0000000000000000e+00" purity="4.6079781651496887e-01" nType="0">
        <Node pos="l" depth="1" NCoef="0" IVar="5" Cut="7.4443441629409790e-01" cType="0" res="-9.9000000000000000e+01" rms="0.0000000000000000e+00" purity="4.7409039735794067e-01" nType="0">
          <Node pos="l" depth="2" NCoef="0" IVar="6" Cut="1.5203271806240082e-01" cType="0" res="-9.9000000000000000e+01" rms="0.0000000000000000e+00" purity="6.0305273532867432e-01" nType="0">
            <Node pos="l" depth="3" NCoef="0" IVar="-1" Cut="0.0000000000000000e+00" cType="1" res="-9.9000000000000000e+01" rms="0.0000000000000000e+00" purity="7.0069843530654907e-01" nType="1"/>
            <Node pos="r" depth="3" NCoef="0" IVar="-1" Cut="0.0000000000000000e+00" cType="1" res="-9.9000000000000000e+01" rms="0.0000000000000000e+00" purity="4.1891834139823914e-01" nType="-1"/>
          </Node>
          <Node pos="r" depth="2" NCoef="0" IVar="-1" Cut="6.1262029409408569e-01" cType="1" res="-9.9000000000000000e+01" rms="0.0000000000000000e+00" purity="4.3392068147659302e-01" nType="-1"/>
        </Node>
        <Node pos="r" depth="1" NCoef="0" IVar="-1" Cut="-6.0522069931030273e+00" cType="1" res="-9.9000000000000000e+01" rms="0.0000000000000000e+00" purity="3.5061568021774292e-02" nType="-1"/>
      </Node>
    </BinaryTree>
    <BinaryTree type="DecisionTree" boostWeight="3.0992359823572269e-01" itree="15">
      <Node pos="s" depth="0" NCoef="0" IVar="3" Cut="1.0199885368347168e+00" cType="1" res="-9.9000000000000000e+01" rms="0.0000000000000000e+00" purity="4.9588239192962646e-01" nType="0">
        <Node pos="l" depth="1" NCoef="0" IVar="5" Cut="6.7574661970138550e-01" cType="1" res="-9.9000000000000000e+01" rms="0.0000000000000000e+00" purity="5.0894343852996826e-01" nType="0">
          <Node pos="l" depth="2" NCoef="0" IVar="2" Cut="4.5518207550048828e-01" cType="1" res="-9.9000000000000000e+01" rms="0.0000000000000000e+00" purity="5.5884391069412231e-01" nType="0">
            <Node pos="l" depth="3" NCoef="0" IVar="-1" Cut="0.0000000000000000e+00" cType="1" res="-9.9000000000000000e+01" rms="0.0000000000000000e+00" purity="6.5867054462432861e-01" nType="1"/>
            <Node pos="r" depth="3" NCoef="0" IVar="-1" Cut="0.0000000000000000e+00" cType="1" res="-9.9000000000000000e+01" rms="0.0000000000000000e+00" purity="4.0208292007446289e-01" nType="-1"/>
          </Node>
          <Node pos="r" depth="2" NCoef="0" IVar="5" Cut="7.9358929395675659e-01" cType="0" res="-9.9000000000000000e+01" rms="0.0000000000000000e+00" purity="4.2587974667549133e-01" nType="0">
            <Node pos="l" depth="3" NCoef="0" IVar="-1" Cut="0.0000000000000000e+00" cType="1" res="-9.9000000000000000e+01" rms="0.0000000000000000e+00" purity="5.7146894931793213e-01" nType="1"/>
            <Node pos="r" depth="3" NCoef="0" IVar="-1" Cut="0.0000000000000000e+00" cType="1" res="-9.9000000000000000e+01" rms="0.0000000000000000e+00" purity="2.5251206755638123e-01" nType="-1"/>
          </Node>
        </Node>
        <Node pos="r" depth="1" NCoef="0" IVar="-1" Cut="-6.0522069931030273e+00" cType="1" res="-9.9000000000000000e+01" rms="0.0000000000000000e+00" purity="4.2572930455207825e-02" nType="-1"/>
      </Node>
    </BinaryTree>
    <BinaryTree type="DecisionTree" boostWeight="2.6347923063345263e-01" itree="16">
      <Node pos="s" depth="0" NCoef="0" IVar="3" Cut="1.0199885368347168e+00" cType="1" res="-9.9000000000000000e+01" rms="0.0000000000000000e+00" purity="4.8452177643775940e-01" nType="0">
        <Node pos="l" depth="1" NCoef="0" IVar="5" Cut="6.7574661970138550e-01" cType="1" res="-9.9000000000000000e+01" rms="0.0000000000000000e+00" purity="4.9558421969413757e-01" nType="0">
          <Node pos="l" depth="2" NCoef="0" IVar="5" Cut="4.3917140364646912e-01" cType="0" res="-9.9000000000000000e+01" rms="0.0000000000000000e+00" purity="5.4359805583953857e-01" nType="0">
            <Node pos="l" depth="3" NCoef="0" IVar="-1" Cut="0.0000000000000000e+00" cType="1" res="-9.9000000000000000e+01" rms="0.0000000000000000e+00" purity="6.1886978149414062e-01" nType="1"/>
            <Node pos="r" depth="3" NCoef="0" IVar="-1" Cut="0.0000000000000000e+00" cType="1" res="-9.9000000000000000e+01" rms="0.0000000000000000e+00" purity="4.1715764999389648e-01" nType="-1"/>
          </Node>
          <Node pos="r" depth="2" NCoef="0" IVar="4" Cut="2.4043733254075050e-02" cType="1" res="-9.9000000000000000e+01" rms="0.0000000000000000e+00" purity="4.1522833704948425e-01" nType="0">
            <Node pos="l" depth="3" NCoef="0" IVar="-1" Cut="0.0000000000000000e+00" cType="1" res="-9.9000000000000000e+01" rms="0.0000000000000000e+00" purity="6.2963968515396118e-01" nType="1"/>
            <Node pos="r" depth="3" NCoef="0" IVar="-1" Cut="0.0000000000000000e+00" cType="1" res="-9.9000000000000000e+01" rms="0.0000000000000000e+00" purity="3.4878247976303101e-01" nType="-1"/>
          </Node>
        </Node>
        <Node pos="r" depth="1" NCoef="0" IVar="-1" Cut="-6.0522069931030273e+00" cType="1" res="-9.9000000000000000e+01" rms="0.0000000000000000e+00" purity="5.7156484574079514e-02" nType="-1"/>
      </Node>
    </BinaryTree>
    <BinaryTree type="DecisionTree" boostWeight="1.6401873039285145e-01" itree="17">
      <Node pos="s" depth="0" NCoef="0" IVar="3" Cut="1.0199885368347168e+00" cType="1" res="-9.9000000000000000e+01" rms="0.0000000000000000e+00" purity="4.8821932077407837e-01" nType="0">
        <Node pos="l" depth="1" NCoef="0" IVar="3" Cut="7.2824889421463013e-01" cType="0" res="-9.9000000000000000e+01" rms="0.0000000000000000e+00" purity="4.9802753329277039e-01" nType="0">
          <Node pos="l" depth="2" NCoef="0" IVar="-1" Cut="0.0000000000000000e+00" cType="1" res="-9.9000000000000000e+01" rms="0.0000000000000000e+00" purity="7.2766357660293579e-01" nType="1"/>
          <Node pos="r" depth="2" NCoef="0" IVar="6" Cut="5.7022219896316528e-01" cType="1" res="-9.9000000000000000e+01" rms="0.0000000000000000e+00" purity="4.7636878490447998e-01" nType="0">
            <Node pos="l" depth="3" NCoef="0" IVar="-1" Cut="0.0000000000000000e+00" cType="1" res="-9.9000000000000000e+01" rms="0.0000000000000000e+00" purity="5.2030950784683228e-01" nType="1"/>
            <Node pos="r" depth="3" NCoef="0" IVar="-1" Cut="0.0000000000000000e+00" cType="1" res="-9.9000000000000000e+01" rms="0.0000000000000000e+00" purity="2.0778962969779968e-01" nType="-1"/>
          </Node>
        </Node>
        <Node pos="r" depth="1" NCoef="0" IVar="-1" Cut="-6.0522069931030273e+00" cType="1" res="-9.9000000000000000e+01" rms="0.0000000000000000e+00" purity="7.3126375675201416e-02" nType="-1"/>
      </Node>
    </BinaryTree>
    <BinaryTree type="DecisionTree" boostWeight="1.9469079779427151e-01" itree="18">
      <Node pos="s" depth="0" NCoef="0" IVar="4" Cut="1.6683061420917511e-01" cType="0" res="-9.9000000000000000e+01" rms="0.0000000000000000e+00" purity="4.5891922712326050e-01" nType="0">
        <Node pos="l" depth="1" NCoef="0" IVar="-1" Cut="0.0000000000000000e+00" cType="1" res="-9.9000000000000000e+01" rms="0.0000000000000000e+00" purity="6.4965903759002686e-01" nType="1"/>
        <Node pos="r" depth="1" NCoef="0" IVar="5" Cut="1.7245560884475708e-01" cType="1" res="-9.9000000000000000e+01" rms="0.0000000000000000e+00" purity="4.3742001056671143e-01" nType="0">
          <Node pos="l" depth="2" NCoef="0" IVar="-1" Cut="0.0000000000000000e+00" cType="1" res="-9.9000000000000000e+01" rms="0.0000000000000000e+00" purity="7.0750945806503296e-01" nType="1"/>
          <Node pos="r" depth="2" NCoef="0" IVar="2" Cut="1.7879137396812439e-01" cType="1" res="-9.9000000000000000e+01" rms="0.0000000000000000e+00" purity="4.2378172278404236e-01" nType="0">
            <Node pos="l" depth="3" NCoef="0" IVar="-1" Cut="0.0000000000000000e+00" cType="1" res="-9.9000000000000000e+01" rms="0.0000000000000000e+00" purity="5.0654655694961548e-01" nType="1"/>
            <Node pos="r" depth="3" NCoef="0" IVar="-1" Cut="0.0000000000000000e+00" cType="1" res="-9.9000000000000000e+01" rms="0.0000000000000000e+00" purity="2.9569056630134583e-01" nType="-1"/>
          </Node>
        </Node>
      </Node>
    </BinaryTree>
    <BinaryTree type="DecisionTree" boostWeight="2.4399877851755780e-01" itree="19">
      <Node pos="s" depth="0" NCoef="0" IVar="1" Cut="-7.3227043151855469e+00" cType="0" res="-9.9000000000000000e+01" rms="0.0000000000000000e+00" purity="4.4190156459808350e-01" nType="0">
        <Node pos="l" depth="1" NCoef="0" IVar="5" Cut="6.5326333045959473e-01" cType="1" res="-9.9000000000000000e+01" rms="0.0000000000000000e+00" purity="4.6220943331718445e-01" nType="0">
          <Node pos="l" depth="2" NCoef="0" IVar="4" Cut="7.3076866567134857e-02" cType="0" res="-9.9000000000000000e+01" rms="0.0000000000000000e+00" purity="5.1023083925247192e-01" nType="0">
            <Node pos="l" depth="3" NCoef="0" IVar="-1" Cut="0.0000000000000000e+00" cType="1" res="-9.9000000000000000e+01" rms="0.0000000000000000e+00" purity="5.8118015527725220e-01" nType="1"/>
            <Node pos="r" depth="3" NCoef="0" IVar="-1" Cut="0.0000000000000000e+00" cType="1" res="-9.9000000000000000e+01" rms="0.0000000000000000e+00" purity="3.6150881648063660e-01" nType="-1"/>
          </Node>
          <Node pos="r" depth="2" NCoef="0" IVar="5" Cut="8.1502020359039307e-01" cType="0" res="-9.9000000000000000e+01" rms="0.0000000000000000e+00" purity="3.8566541671752930e-01" nType="0">
            <Node pos="l" depth="3" NCoef="0" IVar="-1" Cut="0.0000000000000000e+00" cType="1" res="-9.9000000000000000e+01" rms="0.0000000000000000e+00" purity="5.0055831670761108e-01" nType="1"/>
            <Node pos="r" depth="3" NCoef="0" IVar="-1" Cut="0.0000000000000000e+00" cType="1" res="-9.9000000000000000e+01" rms="0.0000000000000000e+00" purity="3.0024063587188721e-01" nType="-1"/>
          </Node>
        </Node>
        <Node pos="r" depth="1" NCoef="0" IVar="-1" Cut="0.0000000000000000e+00" cType="1" res="-9.9000000000000000e+01" rms="0.0000000000000000e+00" purity="2.4010744690895081e-01" nType="-1"/>
      </Node>
    </BinaryTree>
    <BinaryTree type="DecisionTree" boostWeight="1.7084232391963339e-01" itree="20">
      <Node pos="s" depth="0" NCoef="0" IVar="3" Cut="1.0199885368347168e+00" cType="1" res="-9.9000000000000000e+01" rms="0.0000000000000000e+00" purity="4.3674385547637939e-01" nType="0">
        <Node pos="l" depth="1" NCoef="0" IVar="3" Cut="7.2824889421463013e-01" cType="0" res="-9.9000000000000000e+01" rms="0.0000000000000000e+00" purity="4.4522133469581604e-01" nType="0">
          <Node pos="l" depth="2" NCoef="0" IVar="-1" Cut="0.0000000000000000e+00" cType="1" res="-9.9000000000000000e+01" rms="0.0000000000000000e+00" purity="6.4500313997268677e-01" nType="1"/>
          <Node pos="r" depth="2" NCoef="0" IVar="-1" Cut="5.7022219896316528e-01" cType="1" res="-9.9000000000000000e+01" rms="0.0000000000000000e+00" purity="4.2895483970642090e-01" nType="-1"/>
        </Node>
        <Node pos="r" depth="1" NCoef="0" IVar="-1" Cut="-6.0522069931030273e+00" cType="1" res="-9.9000000000000000e+01" rms="0.0000000000000000e+00" purity="6.8480677902698517e-02" nType="-1"/>
      </Node>
    </BinaryTree>
    <BinaryTree type="DecisionTree" boostWeight="1.3315095781886979e-01" itree="21">
      <Node pos="s" depth="0" NCoef="0" IVar="3" Cut="1.0199885368347168e+00" cType="1" res="-9.9000000000000000e+01" rms="0.0000000000000000e+00" purity="4.7268554568290710e-01" nType="0">
        <Node pos="l" depth="1" NCoef="0" IVar="1" Cut="-7.3227043151855469e+00" cType="0" res="-9.9000000000000000e+01" rms="0.0000000000000000e+00" purity="4.8116657137870789e-01" nType="0">
          <Node pos="l" depth="2" NCoef="0" IVar="0" Cut="-7.0962100028991699e+00" cType="0" res="-9.9000000000000000e+01" rms="0.0000000000000000e+00" purity="4.9605929851531982e-01" nType="0">
            <Node pos="l" depth="3" NCoef="0" IVar="-1" Cut="0.0000000000000000e+00" cType="1" res="-9.9000000000000000e+01" rms="0.0000000000000000e+00" purity="5.2979540824890137e-01" nType="1"/>
            <Node pos="r" depth="3" NCoef="0" IVar="-1" Cut="0.0000000000000000e+00" cType="1" res="-9.9000000000000000e+01" rms="0.0000000000000000e+00" purity="4.0470805764198303e-01" nType="-1"/>
          </Node>
          <Node pos="r" depth="2" NCoef="0" IVar="-1" Cut="0.0000000000000000e+00" cType="1" res="-9.9000000000000000e+01" rms="0.0000000000000000e+00" purity="3.2589593529701233e-01" nType="-1"/>
        </Node>
        <Node pos="r" depth="1" NCoef="0" IVar="-1" Cut="-6.0522069931030273e+00" cType="1" res="-9.9000000000000000e+01" rms="0.0000000000000000e+00" purity="8.0215476453304291e-02" nType="-1"/>
      </Node>
    </BinaryTree>
    <BinaryTree type="DecisionTree" boostWeight="1.3871525130203949e-01" itree="22">
      <Node pos="s" depth="0" NCoef="0" IVar="3" Cut="1.0199885368347168e+00" cType="1" res="-9.9000000000000000e+01" rms="0.0000000000000000e+00" purity="4.6222946047782898e-01" nType="0">
        <Node pos="l" depth="1" NCoef="0" IVar="6" Cut="5.7022219896316528e-01" cType="1" res="-9.9000000000000000e+01" rms="0.0000000000000000e+00" purity="4.6987131237983704e-01" nType="0">
          <Node pos="l" depth="2" NCoef="0" IVar="2" Cut="1.3655462265014648e+00" cType="1" res="-9.9000000000000000e+01" rms="0.0000000000000000e+00" purity="4.9035534262657166e-01" nType="0">
            <Node pos="l" depth="3" NCoef="0" IVar="-1" Cut="0.0000000000000000e+00" cType="1" res="-9.9000000000000000e+01" rms="0.0000000000000000e+00" purity="5.1210099458694458e-01" nType="1"/>
            <Node pos="r" depth="3" NCoef="0" IVar="-1" Cut="0.0000000000000000e+00" cType="1" res="-9.9000000000000000e+01" rms="0.0000000000000000e+00" purity="1.6474801814183593e-03" nType="-1"/>
          </Node>
          <Node pos="r" depth="2" NCoef="0" IVar="3" Cut="2.8843483328819275e-01" cType="0" res="-9.9000000000000000e+01" rms="0.0000000000000000e+00" purity="3.6816734075546265e-01" nType="0">
            <Node pos="l" depth="3" NCoef="0" IVar="-1" Cut="0.0000000000000000e+00" cType="1" res="-9.9000000000000000e+01" rms="0.0000000000000000e+00" purity="5.9846907854080200e-01" nType="1"/>
            <Node pos="r" depth="3" NCoef="0" IVar="-1" Cut="0.0000000000000000e+00" cType="1" res="-9.9000000000000000e+01" rms="0.0000000000000000e+00" purity="2.2785243391990662e-01" nType="-1"/>
          </Node>
        </Node>
        <Node pos="r" depth="1" NCoef="0" IVar="-1" Cut="-6.0522069931030273e+00" cType="1" res="-9.9000000000000000e+01" rms="0.0000000000000000e+00" purity="9.0604841709136963e-02" nType="-1"/>
      </Node>
    </BinaryTree>
    <BinaryTree type="DecisionTree" boostWeight="2.3107607953853496e-01" itree="23">
      <Node pos="s" depth="0" NCoef="0" IVar="6" Cut="4.7518517822027206e-02" cType="0" res="-9.9000000000000000e+01" rms="0.0000000000000000e+00" purity="4.3788281083106995e-01" nType="0">
        <Node pos="l" depth="1" NCoef="0" IVar="6" Cut="1.3828629255294800e-01" cType="1" res="-9.9000000000000000e+01" rms="0.0000000000000000e+00" purity="4.5140668749809265e-01" nType="0">
          <Node pos="l" depth="2" NCoef="0" IVar="2" Cut="4.9235308170318604e-01" cType="1" res="-9.9000000000000000e+01" rms="0.0000000000000000e+00" purity="5.8557820320129395e-01" nType="0">
            <Node pos="l" depth="3" NCoef="0" IVar="-1" Cut="0.0000000000000000e+00" cType="1" res="-9.9000000000000000e+01" rms="0.0000000000000000e+00" purity="6.8267220258712769e-01" nType="1"/>
            <Node pos="r" depth="3" NCoef="0" IVar="-1" Cut="0.0000000000000000e+00" cType="1" res="-9.9000000000000000e+01" rms="0.0000000000000000e+00" purity="2.4607090651988983e-01" nType="-1"/>
          </Node>
          <Node pos="r" depth="2" NCoef="0" IVar="-1" Cut="-8.2932863235473633e+00" cType="0" res="-9.9000000000000000e+01" rms="0.0000000000000000e+00" purity="4.1919374465942383e-01" nType="-1"/>
        </Node>
        <Node pos="r" depth="1" NCoef="0" IVar="-1" Cut="0.0000000000000000e+00" cType="1" res="-9.9000000000000000e+01" rms="0.0000000000000000e+00" purity="2.4450989067554474e-01" nType="-1"/>
      </Node>
    </BinaryTree>
    <BinaryTree type="DecisionTree" boostWeight="1.9498228077269480e-01" itree="24">
      <Node pos="s" depth="0" NCoef="0" IVar="2" Cut="2.7506601810455322e+00" cType="1" res="-9.9000000000000000e+01" rms="0.0000000000000000e+00" purity="4.7865328192710876e-01" nType="0">
        <Node pos="l" depth="1" NCoef="0" IVar="2" Cut="1.2977197766304016e-01" cType="1" res="-9.9000000000000000e+01" rms="0.0000000000000000e+00" purity="4.8395690321922302e-01" nType="0">
          <Node pos="l" depth="2" NCoef="0" IVar="2" Cut="1.2284354306757450e-02" cType="1" res="-9.9000000000000000e+01" rms="0.0000000000000000e+00" purity="5.3462576866149902e-01" nType="0">
            <Node pos="l" depth="3" NCoef="0" IVar="-1" Cut="0.0000000000000000e+00" cType="1" res="-9.9000000000000000e+01" rms="0.0000000000000000e+00" purity="6.8258857727050781e-01" nType="1"/>
            <Node pos="r" depth="3" NCoef="0" IVar="-1" Cut="0.0000000000000000e+00" cType="1" res="-9.9000000000000000e+01" rms="0.0000000000000000e+00" purity="4.3646159768104553e-01" nType="-1"/>
          </Node>
          <Node pos="r" depth="2" NCoef="0" IVar="-1" Cut="-6.7054262161254883e+00" cType="0" res="-9.9000000000000000e+01" rms="0.0000000000000000e+00" purity="4.2903241515159607e-01" nType="-1"/>
        </Node>
        <Node pos="r" depth="1" NCoef="0" IVar="-1" Cut="0.0000000000000000e+00" cType="1" res="-9.9000000000000000e+01" rms="0.0000000000000000e+00" purity="0.0000000000000000e+00" nType="-1"/>
      </Node>
    </BinaryTree>
    <BinaryTree type="DecisionTree" boostWeight="1.7276505416410454e-01" itree="25">
      <Node pos="s" depth="0" NCoef="0" IVar="6" Cut="4.7518517822027206e-02" cType="0" res="-9.9000000000000000e+01" rms="0.0000000000000000e+00" purity="5.0744408369064331e-01" nType="0">
        <Node pos="l" depth="1" NCoef="0" IVar="6" Cut="6.8119317293167114e-01" cType="0" res="-9.9000000000000000e+01" rms="0.0000000000000000e+00" purity="5.2192115783691406e-01" nType="0">
          <Node pos="l" depth="2" NCoef="0" IVar="-1" Cut="0.0000000000000000e+00" cType="1" res="-9.9000000000000000e+01" rms="0.0000000000000000e+00" purity="7.1683150529861450e-01" nType="1"/>
          <Node pos="r" depth="2" NCoef="0" IVar="6" Cut="5.5967128276824951e-01" cType="1" res="-9.9000000000000000e+01" rms="0.0000000000000000e+00" purity="5.0373893976211548e-01" nType="0">
            <Node pos="l" depth="3" NCoef="0" IVar="-1" Cut="0.0000000000000000e+00" cType="1" res="-9.9000000000000000e+01" rms="0.0000000000000000e+00" purity="5.3817510604858398e-01" nType="1"/>
            <Node pos="r" depth="3" NCoef="0" IVar="-1" Cut="0.0000000000000000e+00" cType="1" res="-9.9000000000000000e+01" rms="0.0000000000000000e+00" purity="2.0971338450908661e-01" nType="-1"/>
          </Node>
        </Node>
        <Node pos="r" depth="1" NCoef="0" IVar="-1" Cut="0.0000000000000000e+00" cType="1" res="-9.9000000000000000e+01" rms="0.0000000000000000e+00" purity="3.0160224437713623e-01" nType="-1"/>
      </Node>
    </BinaryTree>
    <BinaryTree type="DecisionTree" boostWeight="2.4798822389327715e-01" itree="26">
      <Node pos="s" depth="0" NCoef="0" IVar="1" Cut="-4.7303538322448730e+00" cType="0" res="-9.9000000000000000e+01" rms="0.0000000000000000e+00" purity="4.7740918397903442e-01" nType="0">
        <Node pos="l" depth="1" NCoef="0" IVar="0" Cut="-4.7171173095703125e+00" cType="0" res="-9.9000000000000000e+01" rms="0.0000000000000000e+00" purity="5.4703176021575928e-01" nType="0">
          <Node pos="l" depth="2" NCoef="0" IVar="-1" Cut="-3.9853124618530273e+00" cType="1" res="-9.9000000000000000e+01" rms="0.0000000000000000e+00" purity="6.6931575536727905e-01" nType="1"/>
          <Node pos="r" depth="2" NCoef="0" IVar="6" Cut="4.6120387315750122e-01" cType="1" res="-9.9000000000000000e+01" rms="0.0000000000000000e+00" purity="4.0428802371025085e-01" nType="0">
            <Node pos="l" depth="3" NCoef="0" IVar="-1" Cut="0.0000000000000000e+00" cType="1" res="-9.9000000000000000e+01" rms="0.0000000000000000e+00" purity="5.1672875881195068e-01" nType="1"/>
            <Node pos="r" depth="3" NCoef="0" IVar="-1" Cut="0.0000000000000000e+00" cType="1" res="-9.9000000000000000e+01" rms="0.0000000000000000e+00" purity="2.4261061847209930e-01" nType="-1"/>
          </Node>
        </Node>
        <Node pos="r" depth="1" NCoef="0" IVar="5" Cut="8.6936646699905396e-01" cType="0" res="-9.9000000000000000e+01" rms="0.0000000000000000e+00" purity="4.4238534569740295e-01" nType="0">
          <Node pos="l" depth="2" NCoef="0" IVar="-1" Cut="-6.0339155197143555e+00" cType="1" res="-9.9000000000000000e+01" rms="0.0000000000000000e+00" purity="9.3840014934539795e-01" nType="1"/>
          <Node pos="r" depth="2" NCoef="0" IVar="-1" Cut="-6.1170878410339355e+00" cType="1" res="-9.9000000000000000e+01" rms="0.0000000000000000e+00" purity="4.1088661551475525e-01" nType="-1"/>
        </Node>
      </Node>
    </BinaryTree>
    <BinaryTree type="DecisionTree" boostWeight="1.1307402908142108e-01" itree="27">
      <Node pos="s" depth="0" NCoef="0" IVar="2" Cut="2.7506601810455322e+00" cType="1" res="-9.9000000000000000e+01" rms="0.0000000000000000e+00" purity="5.0073814392089844e-01" nType="0">
        <Node pos="l" depth="1" NCoef="0" IVar="4" Cut="1.6683061420917511e-01" cType="0" res="-9.9000000000000000e+01" rms="0.0000000000000000e+00" purity="5.0611782073974609e-01" nType="0">
          <Node pos="l" depth="2" NCoef="0" IVar="-1" Cut="0.0000000000000000e+00" cType="1" res="-9.9000000000000000e+01" rms="0.0000000000000000e+00" purity="6.4868777990341187e-01" nType="1"/>
          <Node pos="r" depth="2" NCoef="0" IVar="5" Cut="4.0439817309379578e-01" cType="0" res="-9.9000000000000000e+01" rms="0.0000000000000000e+00" purity="4.8876681923866272e-01" nType="0">
            <Node pos="l" depth="3" NCoef="0" IVar="-1" Cut="0.0000000000000000e+00" cType="1" res="-9.9000000000000000e+01" rms="0.0000000000000000e+00" purity="5.1636379957199097e-01" nType="1"/>
            <Node pos="r" depth="3" NCoef="0" IVar="-1" Cut="0.0000000000000000e+00" cType="1" res="-9.9000000000000000e+01" rms="0.0000000000000000e+00" purity="3.0407589673995972e-01" nType="-1"/>
          </Node>
        </Node>
        <Node pos="r" depth="1" NCoef="0" IVar="-1" Cut="0.0000000000000000e+00" cType="1" res="-9.9000000000000000e+01" rms="0.0000000000000000e+00" purity="0.0000000000000000e+00" nType="-1"/>
      </Node>
    </BinaryTree>
    <BinaryTree type="DecisionTree" boostWeight="1.2788141663179686e-01" itree="28">
      <Node pos="s" depth="0" NCoef="0" IVar="2" Cut="2.7506601810455322e+00" cType="1" res="-9.9000000000000000e+01" rms="0.0000000000000000e+00" purity="4.7944501042366028e-01" nType="0">
        <Node pos="l" depth="1" NCoef="0" IVar="4" Cut="1.6683061420917511e-01" cType="0" res="-9.9000000000000000e+01" rms="0.0000000000000000e+00" purity="4.8433348536491394e-01" nType="0">
          <Node pos="l" depth="2" NCoef="0" IVar="-1" Cut="0.0000000000000000e+00" cType="1" res="-9.9000000000000000e+01" rms="0.0000000000000000e+00" purity="6.2250685691833496e-01" nType="1"/>
          <Node pos="r" depth="2" NCoef="0" IVar="4" Cut="7.9203620553016663e-02" cType="1" res="-9.9000000000000000e+01" rms="0.0000000000000000e+00" purity="4.6772551536560059e-01" nType="0">
            <Node pos="l" depth="3" NCoef="0" IVar="-1" Cut="0.0000000000000000e+00" cType="1" res="-9.9000000000000000e+01" rms="0.0000000000000000e+00" purity="5.1464200019836426e-01" nType="1"/>
            <Node pos="r" depth="3" NCoef="0" IVar="-1" Cut="0.0000000000000000e+00" cType="1" res="-9.9000000000000000e+01" rms="0.0000000000000000e+00" purity="3.7765640020370483e-01" nType="-1"/>
          </Node>
        </Node>
        <Node pos="r" depth="1" NCoef="0" IVar="-1" Cut="0.0000000000000000e+00" cType="1" res="-9.9000000000000000e+01" rms="0.0000000000000000e+00" purity="0.0000000000000000e+00" nType="-1"/>
      </Node>
    </BinaryTree>
    <BinaryTree type="DecisionTree" boostWeight="2.7076608957474757e-01" itree="29">
      <Node pos="s" depth="0" NCoef="0" IVar="0" Cut="-8.8977060317993164e+00" cType="0" res="-9.9000000000000000e+01" rms="0.0000000000000000e+00" purity="4.6722221374511719e-01" nType="0">
        <Node pos="l" depth="1" NCoef="0" IVar="0" Cut="-6.1326622962951660e+00" cType="1" res="-9.9000000000000000e+01" rms="0.0000000000000000e+00" purity="4.7690930962562561e-01" nType="0">
          <Node pos="l" depth="2" NCoef="0" IVar="6" Cut="2.6657661795616150e-01" cType="1" res="-9.9000000000000000e+01" rms="0.0000000000000000e+00" purity="5.4069995880126953e-01" nType="0">
            <Node pos="l" depth="3" NCoef="0" IVar="-1" Cut="0.0000000000000000e+00" cType="1" res="-9.9000000000000000e+01" rms="0.0000000000000000e+00" purity="6.2242805957794189e-01" nType="1"/>
            <Node pos="r" depth="3" NCoef="0" IVar="-1" Cut="0.0000000000000000e+00" cType="1" res="-9.9000000000000000e+01" rms="0.0000000000000000e+00" purity="9.2570483684539795e-02" nType="-1"/>
          </Node>
          <Node pos="r" depth="2" NCoef="0" IVar="-1" Cut="1.9007407128810883e-01" cType="0" res="-9.9000000000000000e+01" rms="0.0000000000000000e+00" purity="4.1361916065216064e-01" nType="-1"/>
        </Node>
        <Node pos="r" depth="1" NCoef="0" IVar="-1" Cut="0.0000000000000000e+00" cType="1" res="-9.9000000000000000e+01" rms="0.0000000000000000e+00" purity="2.1014572679996490e-01" nType="-1"/>
      </Node>
    </BinaryTree>
    <BinaryTree type="DecisionTree" boostWeight="1.3916204408209210e-01" itree="30">
      <Node pos="s" depth="0" NCoef="0" IVar="1" Cut="-7.3227043151855469e+00" cType="0" res="-9.9000000000000000e+01" rms="0.0000000000000000e+00" purity="4.7914037108421326e-01" nType="0">
        <Node pos="l" depth="1" NCoef="0" IVar="0" Cut="-7.0844483375549316e+00" cType="0" res="-9.9000000000000000e+01" rms="0.0000000000000000e+00" purity="4.9412906169891357e-01" nType="0">
          <Node pos="l" depth="2" NCoef="0" IVar="3" Cut="1.0199885368347168e+00" cType="1" res="-9.9000000000000000e+01" rms="0.0000000000000000e+00" purity="5.2838641405105591e-01" nType="0">
            <Node pos="l" depth="3" NCoef="0" IVar="-1" Cut="0.0000000000000000e+00" cType="1" res="-9.9000000000000000e+01" rms="0.0000000000000000e+00" purity="5.3648722171783447e-01" nType="1"/>
            <Node pos="r" depth="3" NCoef="0" IVar="-1" Cut="0.0000000000000000e+00" cType="1" res="-9.9000000000000000e+01" rms="0.0000000000000000e+00" purity="1.5275971591472626e-01" nType="-1"/>
          </Node>
          <Node pos="r" depth="2" NCoef="0" IVar="-1" Cut="-7.4301533699035645e+00" cType="1" res="-9.9000000000000000e+01" rms="0.0000000000000000e+00" purity="3.9816877245903015e-01" nType="-1"/>
        </Node>
        <Node pos="r" depth="1" NCoef="0" IVar="-1" Cut="0.0000000000000000e+00" cType="1" res="-9.9000000000000000e+01" rms="0.0000000000000000e+00" purity="3.1339067220687866e-01" nType="-1"/>
      </Node>
    </BinaryTree>
    <BinaryTree type="DecisionTree" boostWeight="1.2690481751539159e-01" itree="31">
      <Node pos="s" depth="0" NCoef="0" IVar="6" Cut="4.7518517822027206e-02" cType="0" res="-9.9000000000000000e+01" rms="0.0000000000000000e+00" purity="4.6760702133178711e-01" nType="0">
        <Node pos="l" depth="1" NCoef="0" IVar="6" Cut="6.8119317293167114e-01" cType="0" res="-9.9000000000000000e+01" rms="0.0000000000000000e+00" purity="4.7967407107353210e-01" nType="0">
          <Node pos="l" depth="2" NCoef="0" IVar="-1" Cut="0.0000000000000000e+00" cType="1" res="-9.9000000000000000e+01" rms="0.0000000000000000e+00" purity="6.9454401731491089e-01" nType="1"/>
          <Node pos="r" depth="2" NCoef="0" IVar="-1" Cut="3.7101775407791138e-01" cType="0" res="-9.9000000000000000e+01" rms="0.0000000000000000e+00" purity="4.5996734499931335e-01" nType="-1"/>
        </Node>
        <Node pos="r" depth="1" NCoef="0" IVar="-1" Cut="0.0000000000000000e+00" cType="1" res="-9.9000000000000000e+01" rms="0.0000000000000000e+00" purity="2.7907082438468933e-01" nType="-1"/>
      </Node>
    </BinaryTree>
    <BinaryTree type="DecisionTree" boostWeight="1.3781370971293272e-01" itree="32">
      <Node pos="s" depth="0" NCoef="0" IVar="6" Cut="4.7518517822027206e-02" cType="0" res="-9.9000000000000000e+01" rms="0.0000000000000000e+00" purity="4.9424138665199280e-01" nType="0">
        <Node pos="l" depth="1" NCoef="0" IVar="6" Cut="6.8119317293167114e-01" cType="0" res="-9.9000000000000000e+01" rms="0.0000000000000000e+00" purity="5.0607514381408691e-01" nType="0">
          <Node pos="l" depth="2" NCoef="0" IVar="-1" Cut="0.0000000000000000e+00" cType="1" res="-9.9000000000000000e+01" rms="0.0000000000000000e+00" purity="6.6697722673416138e-01" nType="1"/>
          <Node pos="r" depth="2" NCoef="0" IVar="5" Cut="3.7101775407791138e-01" cType="0" res="-9.9000000000000000e+01" rms="0.0000000000000000e+00" purity="4.9160847067832947e-01" nType="0">
            <Node pos="l" depth="3" NCoef="0" IVar="-1" Cut="0.0000000000000000e+00" cType="1" res="-9.9000000000000000e+01" rms="0.0000000000000000e+00" purity="5.2413457632064819e-01" nType="1"/>
            <Node pos="r" depth="3" NCoef="0" IVar="-1" Cut="0.0000000000000000e+00" cType="1" res="-9.9000000000000000e+01" rms="0.0000000000000000e+00" purity="2.4673390388488770e-01" nType="-1"/>
          </Node>
        </Node>
        <Node pos="r" depth="1" NCoef="0" IVar="-1" Cut="0.0000000000000000e+00" cType="1" res="-9.9000000000000000e+01" rms="0.0000000000000000e+00" purity="3.0530312657356262e-01" nType="-1"/>
      </Node>
    </BinaryTree>
    <BinaryTree type="DecisionTree" boostWeight="2.3887462186596389e-01" itree="33">
      <Node pos="s" depth="0" NCoef="0" IVar="4" Cut="1.1923498660326004e-01" cType="0" res="-9.9000000000000000e+01" rms="0.0000000000000000e+00" purity="4.7058537602424622e-01" nType="0">
        <Node pos="l" depth="1" NCoef="0" IVar="0" Cut="-5.6458649635314941e+00" cType="1" res="-9.9000000000000000e+01" rms="0.0000000000000000e+00" purity="5.8471000194549561e-01" nType="0">
          <Node pos="l" depth="2" NCoef="0" IVar="-1" Cut="0.0000000000000000e+00" cType="1" res="-9.9000000000000000e+01" rms="0.0000000000000000e+00" purity="7.0958453416824341e-01" nType="1"/>
          <Node pos="r" depth="2" NCoef="0" IVar="-1" Cut="0.0000000000000000e+00" cType="1" res="-9.9000000000000000e+01" rms="0.0000000000000000e+00" purity="3.6228248476982117e-01" nType="-1"/>
        </Node>
        <Node pos="r" depth="1" NCoef="0" IVar="4" Cut="7.9564496874809265e-02" cType="1" res="-9.9000000000000000e+01" rms="0.0000000000000000e+00" purity="4.4616985321044922e-01" nType="0">
          <Node pos="l" depth="2" NCoef="0" IVar="4" Cut="4.1776686906814575e-02" cType="0" res="-9.9000000000000000e+01" rms="0.0000000000000000e+00" purity="4.8484542965888977e-01" nType="0">
            <Node pos="l" depth="3" NCoef="0" IVar="-1" Cut="0.0000000000000000e+00" cType="1" res="-9.9000000000000000e+01" rms="0.0000000000000000e+00" purity="5.6883043050765991e-01" nType="1"/>
            <Node pos="r" depth="3" NCoef="0" IVar="-1" Cut="0.0000000000000000e+00" cType="1" res="-9.9000000000000000e+01" rms="0.0000000000000000e+00" purity="4.0320438146591187e-01" nType="-1"/>
          </Node>
          <Node pos="r" depth="2" NCoef="0" IVar="-1" Cut="9.4756662845611572e-02" cType="0" res="-9.9000000000000000e+01" rms="0.0000000000000000e+00" purity="3.4452724456787109e-01" nType="-1"/>
        </Node>
      </Node>
    </BinaryTree>
    <BinaryTree type="DecisionTree" boostWeight="1.6940242194466301e-01" itree="34">
      <Node pos="s" depth="0" NCoef="0" IVar="2" Cut="2.7506601810455322e+00" cType="1" res="-9.9000000000000000e+01" rms="0.0000000000000000e+00" purity="4.8111391067504883e-01" nType="0">
        <Node pos="l" depth="1" NCoef="0" IVar="2" Cut="1.2977197766304016e-01" cType="1" res="-9.9000000000000000e+01" rms="0.0000000000000000e+00" purity="4.8516216874122620e-01" nType="0">
          <Node pos="l" depth="2" NCoef="0" IVar="2" Cut="6.1421771533787251e-03" cType="1" res="-9.9000000000000000e+01" rms="0.0000000000000000e+00" purity="5.5281311273574829e-01" nType="0">
            <Node pos="l" depth="3" NCoef="0" IVar="-1" Cut="0.0000000000000000e+00" cType="1" res="-9.9000000000000000e+01" rms="0.0000000000000000e+00" purity="6.7525684833526611e-01" nType="1"/>
            <Node pos="r" depth="3" NCoef="0" IVar="-1" Cut="0.0000000000000000e+00" cType="1" res="-9.9000000000000000e+01" rms="0.0000000000000000e+00" purity="4.8300346732139587e-01" nType="-1"/>
          </Node>
          <Node pos="r" depth="2" NCoef="0" IVar="-1" Cut="-6.7054262161254883e+00" cType="0" res="-9.9000000000000000e+01" rms="0.0000000000000000e+00" purity="4.1329482197761536e-01" nType="-1"/>
        </Node>
        <Node pos="r" depth="1" NCoef="0" IVar="-1" Cut="0.0000000000000000e+00" cType="1" res="-9.9000000000000000e+01" rms="0.0000000000000000e+00" purity="0.0000000000000000e+00" nType="-1"/>
      </Node>
    </BinaryTree>
    <BinaryTree type="DecisionTree" boostWeight="1.1838424802144691e-01" itree="35">
      <Node pos="s" depth="0" NCoef="0" IVar="2" Cut="2.7506601810455322e+00" cType="1" res="-9.9000000000000000e+01" rms="0.0000000000000000e+00" purity="5.0780105590820312e-01" nType="0">
        <Node pos="l" depth="1" NCoef="0" IVar="2" Cut="1.2977197766304016e-01" cType="1" res="-9.9000000000000000e+01" rms="0.0000000000000000e+00" purity="5.1176667213439941e-01" nType="0">
          <Node pos="l" depth="2" NCoef="0" IVar="-1" Cut="8.5736560821533203e-01" cType="0" res="-9.9000000000000000e+01" rms="0.0000000000000000e+00" purity="5.6520044803619385e-01" nType="1"/>
          <Node pos="r" depth="2" NCoef="0" IVar="-1" Cut="-6.7054262161254883e+00" cType="0" res="-9.9000000000000000e+01" rms="0.0000000000000000e+00" purity="4.5488333702087402e-01" nType="-1"/>
        </Node>
        <Node pos="r" depth="1" NCoef="0" IVar="-1" Cut="0.0000000000000000e+00" cType="1" res="-9.9000000000000000e+01" rms="0.0000000000000000e+00" purity="0.0000000000000000e+00" nType="-1"/>
      </Node>
    </BinaryTree>
    <BinaryTree type="DecisionTree" boostWeight="3.1502687802393231e-01" itree="36">
      <Node pos="s" depth="0" NCoef="0" IVar="5" Cut="6.5326333045959473e-01" cType="1" res="-9.9000000000000000e+01" rms="0.0000000000000000e+00" purity="5.0716280937194824e-01" nType="0">
        <Node pos="l" depth="1" NCoef="0" IVar="4" Cut="7.3076866567134857e-02" cType="0" res="-9.9000000000000000e+01" rms="0.0000000000000000e+00" purity="5.4545032978057861e-01" nType="0">
          <Node pos="l" depth="2" NCoef="0" IVar="-1" Cut="2.8511109948158264e-01" cType="1" res="-9.9000000000000000e+01" rms="0.0000000000000000e+00" purity="6.0120290517807007e-01" nType="1"/>
          <Node pos="r" depth="2" NCoef="0" IVar="5" Cut="5.0496006011962891e-01" cType="0" res="-9.9000000000000000e+01" rms="0.0000000000000000e+00" purity="4.3860849738121033e-01" nType="0">
            <Node pos="l" depth="3" NCoef="0" IVar="-1" Cut="0.0000000000000000e+00" cType="1" res="-9.9000000000000000e+01" rms="0.0000000000000000e+00" purity="5.8438920974731445e-01" nType="1"/>
            <Node pos="r" depth="3" NCoef="0" IVar="-1" Cut="0.0000000000000000e+00" cType="1" res="-9.9000000000000000e+01" rms="0.0000000000000000e+00" purity="8.6022511124610901e-02" nType="-1"/>
          </Node>
        </Node>
        <Node pos="r" depth="1" NCoef="0" IVar="5" Cut="7.7472728490829468e-01" cType="0" res="-9.9000000000000000e+01" rms="0.0000000000000000e+00" purity="4.4800820946693420e-01" nType="0">
          <Node pos="l" depth="2" NCoef="0" IVar="6" Cut="1.5203271806240082e-01" cType="0" res="-9.9000000000000000e+01" rms="0.0000000000000000e+00" purity="5.5924612283706665e-01" nType="0">
            <Node pos="l" depth="3" NCoef="0" IVar="-1" Cut="0.0000000000000000e+00" cType="1" res="-9.9000000000000000e+01" rms="0.0000000000000000e+00" purity="6.9799393415451050e-01" nType="1"/>
            <Node pos="r" depth="3" NCoef="0" IVar="-1" Cut="0.0000000000000000e+00" cType="1" res="-9.9000000000000000e+01" rms="0.0000000000000000e+00" purity="3.3059832453727722e-01" nType="-1"/>
          </Node>
          <Node pos="r" depth="2" NCoef="0" IVar="-1" Cut="0.0000000000000000e+00" cType="1" res="-9.9000000000000000e+01" rms="0.0000000000000000e+00" purity="3.0738231539726257e-01" nType="-1"/>
        </Node>
      </Node>
    </BinaryTree>
    <BinaryTree type="DecisionTree" boostWeight="1.4547870373940591e-01" itree="37">
      <Node pos="s" depth="0" NCoef="0" IVar="2" Cut="2.7506601810455322e+00" cType="1" res="-9.9000000000000000e+01" rms="0.0000000000000000e+00" purity="4.7754815220832825e-01" nType="0">
        <Node pos="l" depth="1" NCoef="0" IVar="5" Cut="7.4443441629409790e-01" cType="0" res="-9.9000000000000000e+01" rms="0.0000000000000000e+00" purity="4.8140180110931396e-01" nType="0">
          <Node pos="l" depth="2" NCoef="0" IVar="1" Cut="-6.5503177642822266e+00" cType="0" res="-9.9000000000000000e+01" rms="0.0000000000000000e+00" purity="5.6803095340728760e-01" nType="0">
            <Node pos="l" depth="3" NCoef="0" IVar="-1" Cut="0.0000000000000000e+00" cType="1" res="-9.9000000000000000e+01" rms="0.0000000000000000e+00" purity="6.5225601196289062e-01" nType="1"/>
            <Node pos="r" depth="3" NCoef="0" IVar="-1" Cut="0.0000000000000000e+00" cType="1" res="-9.9000000000000000e+01" rms="0.0000000000000000e+00" purity="3.7319684028625488e-01" nType="-1"/>
          </Node>
          <Node pos="r" depth="2" NCoef="0" IVar="-1" Cut="2.5640962645411491e-02" cType="0" res="-9.9000000000000000e+01" rms="0.0000000000000000e+00" purity="4.5463809370994568e-01" nType="-1"/>
        </Node>
        <Node pos="r" depth="1" NCoef="0" IVar="-1" Cut="0.0000000000000000e+00" cType="1" res="-9.9000000000000000e+01" rms="0.0000000000000000e+00" purity="0.0000000000000000e+00" nType="-1"/>
      </Node>
    </BinaryTree>
    <BinaryTree type="DecisionTree" boostWeight="8.4446496026506973e-02" itree="38">
      <Node pos="s" depth="0" NCoef="0" IVar="2" Cut="2.7506601810455322e+00" cType="1" res="-9.9000000000000000e+01" rms="0.0000000000000000e+00" purity="5.0200504064559937e-01" nType="0">
        <Node pos="l" depth="1" NCoef="0" IVar="5" Cut="1.9493213295936584e-01" cType="1" res="-9.9000000000000000e+01" rms="0.0000000000000000e+00" purity="5.0579988956451416e-01" nType="0">
          <Node pos="l" depth="2" NCoef="0" IVar="-1" Cut="0.0000000000000000e+00" cType="1" res="-9.9000000000000000e+01" rms="0.0000000000000000e+00" purity="7.0514887571334839e-01" nType="1"/>
          <Node pos="r" depth="2" NCoef="0" IVar="2" Cut="1.0362356901168823e+00" cType="1" res="-9.9000000000000000e+01" rms="0.0000000000000000e+00" purity="4.9589711427688599e-01" nType="0">
            <Node pos="l" depth="3" NCoef="0" IVar="-1" Cut="0.0000000000000000e+00" cType="1" res="-9.9000000000000000e+01" rms="0.0000000000000000e+00" purity="5.1361733675003052e-01" nType="1"/>
            <Node pos="r" depth="3" NCoef="0" IVar="-1" Cut="0.0000000000000000e+00" cType="1" res="-9.9000000000000000e+01" rms="0.0000000000000000e+00" purity="3.3777810167521238e-03" nType="-1"/>
          </Node>
        </Node>
        <Node pos="r" depth="1" NCoef="0" IVar="-1" Cut="0.0000000000000000e+00" cType="1" res="-9.9000000000000000e+01" rms="0.0000000000000000e+00" purity="0.0000000000000000e+00" nType="-1"/>
      </Node>
    </BinaryTree>
    <BinaryTree type="DecisionTree" boostWeight="6.9722557581510830e-02" itree="39">
      <Node pos="s" depth="0" NCoef="0" IVar="2" Cut="2.7506601810455322e+00" cType="1" res="-9.9000000000000000e+01" rms="0.0000000000000000e+00" purity="4.8254615068435669e-01" nType="0">
        <Node pos="l" depth="1" NCoef="0" IVar="5" Cut="1.9493213295936584e-01" cType="1" res="-9.9000000000000000e+01" rms="0.0000000000000000e+00" purity="4.8605141043663025e-01" nType="0">
          <Node pos="l" depth="2" NCoef="0" IVar="-1" Cut="0.0000000000000000e+00" cType="1" res="-9.9000000000000000e+01" rms="0.0000000000000000e+00" purity="6.8729251623153687e-01" nType="1"/>
          <Node pos="r" depth="2" NCoef="0" IVar="-1" Cut="1.0362356901168823e+00" cType="1" res="-9.9000000000000000e+01" rms="0.0000000000000000e+00" purity="4.7620248794555664e-01" nType="-1"/>
        </Node>
        <Node pos="r" depth="1" NCoef="0" IVar="-1" Cut="0.0000000000000000e+00" cType="1" res="-9.9000000000000000e+01" rms="0.0000000000000000e+00" purity="0.0000000000000000e+00" nType="-1"/>
      </Node>
    </BinaryTree>
    <BinaryTree type="DecisionTree" boostWeight="1.1669361551436935e-01" itree="40">
      <Node pos="s" depth="0" NCoef="0" IVar="2" Cut="2.7506601810455322e+00" cType="1" res="-9.9000000000000000e+01" rms="0.0000000000000000e+00" purity="4.9835160374641418e-01" nType="0">
        <Node pos="l" depth="1" NCoef="0" IVar="2" Cut="1.2977197766304016e-01" cType="1" res="-9.9000000000000000e+01" rms="0.0000000000000000e+00" purity="5.0185316801071167e-01" nType="0">
          <Node pos="l" depth="2" NCoef="0" IVar="1" Cut="-5.8097786903381348e+00" cType="1" res="-9.9000000000000000e+01" rms="0.0000000000000000e+00" purity="5.4034912586212158e-01" nType="0">
            <Node pos="l" depth="3" NCoef="0" IVar="-1" Cut="0.0000000000000000e+00" cType="1" res="-9.9000000000000000e+01" rms="0.0000000000000000e+00" purity="6.2746703624725342e-01" nType="1"/>
            <Node pos="r" depth="3" NCoef="0" IVar="-1" Cut="0.0000000000000000e+00" cType="1" res="-9.9000000000000000e+01" rms="0.0000000000000000e+00" purity="4.7411447763442993e-01" nType="-1"/>
          </Node>
          <Node pos="r" depth="2" NCoef="0" IVar="-1" Cut="-6.7054262161254883e+00" cType="0" res="-9.9000000000000000e+01" rms="0.0000000000000000e+00" purity="4.6078902482986450e-01" nType="-1"/>
        </Node>
        <Node pos="r" depth="1" NCoef="0" IVar="-1" Cut="0.0000000000000000e+00" cType="1" res="-9.9000000000000000e+01" rms="0.0000000000000000e+00" purity="0.0000000000000000e+00" nType="-1"/>
      </Node>
    </BinaryTree>
    <BinaryTree type="DecisionTree" boostWeight="1.1400596898423379e-01" itree="41">
      <Node pos="s" depth="0" NCoef="0" IVar="1" Cut="-7.3227043151855469e+00" cType="0" res="-9.9000000000000000e+01" rms="0.0000000000000000e+00" purity="5.1468974351882935e-01" nType="0">
        <Node pos="l" depth="1" NCoef="0" IVar="2" Cut="2.7506601810455322e+00" cType="1" res="-9.9000000000000000e+01" rms="0.0000000000000000e+00" purity="5.2722758054733276e-01" nType="0">
          <Node pos="l" depth="2" NCoef="0" IVar="1" Cut="-6.7621412277221680e+00" cType="0" res="-9.9000000000000000e+01" rms="0.0000000000000000e+00" purity="5.3081864118576050e-01" nType="0">
            <Node pos="l" depth="3" NCoef="0" IVar="-1" Cut="0.0000000000000000e+00" cType="1" res="-9.9000000000000000e+01" rms="0.0000000000000000e+00" purity="5.4193615913391113e-01" nType="1"/>
            <Node pos="r" depth="3" NCoef="0" IVar="-1" Cut="0.0000000000000000e+00" cType="1" res="-9.9000000000000000e+01" rms="0.0000000000000000e+00" purity="3.8287201523780823e-01" nType="-1"/>
          </Node>
          <Node pos="r" depth="2" NCoef="0" IVar="-1" Cut="0.0000000000000000e+00" cType="1" res="-9.9000000000000000e+01" rms="0.0000000000000000e+00" purity="0.0000000000000000e+00" nType="-1"/>
        </Node>
        <Node pos="r" depth="1" NCoef="0" IVar="-1" Cut="0.0000000000000000e+00" cType="1" res="-9.9000000000000000e+01" rms="0.0000000000000000e+00" purity="3.6626642942428589e-01" nType="-1"/>
      </Node>
    </BinaryTree>
    <BinaryTree type="DecisionTree" boostWeight="6.2002693383084159e-02" itree="42">
      <Node pos="s" depth="0" NCoef="0" IVar="2" Cut="2.7506601810455322e+00" cType="1" res="-9.9000000000000000e+01" rms="0.0000000000000000e+00" purity="4.9461984634399414e-01" nType="0">
        <Node pos="l" depth="1" NCoef="0" IVar="5" Cut="1.9493213295936584e-01" cType="1" res="-9.9000000000000000e+01" rms="0.0000000000000000e+00" purity="4.9774533510208130e-01" nType="0">
          <Node pos="l" depth="2" NCoef="0" IVar="-1" Cut="0.0000000000000000e+00" cType="1" res="-9.9000000000000000e+01" rms="0.0000000000000000e+00" purity="6.7365312576293945e-01" nType="1"/>
          <Node pos="r" depth="2" NCoef="0" IVar="2" Cut="1.0362356901168823e+00" cType="1" res="-9.9000000000000000e+01" rms="0.0000000000000000e+00" purity="4.8916572332382202e-01" nType="0">
            <Node pos="l" depth="3" NCoef="0" IVar="-1" Cut="0.0000000000000000e+00" cType="1" res="-9.9000000000000000e+01" rms="0.0000000000000000e+00" purity="5.0519615411758423e-01" nType="1"/>
            <Node pos="r" depth="3" NCoef="0" IVar="-1" Cut="0.0000000000000000e+00" cType="1" res="-9.9000000000000000e+01" rms="0.0000000000000000e+00" purity="4.4967336580157280e-03" nType="-1"/>
          </Node>
        </Node>
        <Node pos="r" depth="1" NCoef="0" IVar="-1" Cut="0.0000000000000000e+00" cType="1" res="-9.9000000000000000e+01" rms="0.0000000000000000e+00" purity="0.0000000000000000e+00" nType="-1"/>
      </Node>
    </BinaryTree>
    <BinaryTree type="DecisionTree" boostWeight="1.4986623825311882e-01" itree="43">
      <Node pos="s" depth="0" NCoef="0" IVar="4" Cut="1.1923498660326004e-01" cType="0" res="-9.9000000000000000e+01" rms="0.0000000000000000e+00" purity="4.8022094368934631e-01" nType="0">
        <Node pos="l" depth="1" NCoef="0" IVar="0" Cut="-5.6458649635314941e+00" cType="1" res="-9.9000000000000000e+01" rms="0.0000000000000000e+00" purity="5.6234705448150635e-01" nType="0">
          <Node pos="l" depth="2" NCoef="0" IVar="-1" Cut="0.0000000000000000e+00" cType="1" res="-9.9000000000000000e+01" rms="0.0000000000000000e+00" purity="6.7455899715423584e-01" nType="1"/>
          <Node pos="r" depth="2" NCoef="0" IVar="-1" Cut="0.0000000000000000e+00" cType="1" res="-9.9000000000000000e+01" rms="0.0000000000000000e+00" purity="3.5357949137687683e-01" nType="-1"/>
        </Node>
        <Node pos="r" depth="1" NCoef="0" IVar="5" Cut="1.7245560884475708e-01" cType="1" res="-9.9000000000000000e+01" rms="0.0000000000000000e+00" purity="4.6258822083473206e-01" nType="0">
          <Node pos="l" depth="2" NCoef="0" IVar="-1" Cut="0.0000000000000000e+00" cType="1" res="-9.9000000000000000e+01" rms="0.0000000000000000e+00" purity="7.7054423093795776e-01" nType="1"/>
          <Node pos="r" depth="2" NCoef="0" IVar="-1" Cut="3.6251667141914368e-01" cType="0" res="-9.9000000000000000e+01" rms="0.0000000000000000e+00" purity="4.5225396752357483e-01" nType="-1"/>
        </Node>
      </Node>
    </BinaryTree>
    <BinaryTree type="DecisionTree" boostWeight="1.5040247229399414e-01" itree="44">
      <Node pos="s" depth="0" NCoef="0" IVar="2" Cut="2.7506601810455322e+00" cType="1" res="-9.9000000000000000e+01" rms="0.0000000000000000e+00" purity="5.0709897279739380e-01" nType="0">
        <Node pos="l" depth="1" NCoef="0" IVar="2" Cut="1.0381758213043213e+00" cType="1" res="-9.9000000000000000e+01" rms="0.0000000000000000e+00" purity="5.1032310724258423e-01" nType="0">
          <Node pos="l" depth="2" NCoef="0" IVar="6" Cut="5.7022219896316528e-01" cType="1" res="-9.9000000000000000e+01" rms="0.0000000000000000e+00" purity="5.2091383934020996e-01" nType="0">
            <Node pos="l" depth="3" NCoef="0" IVar="-1" Cut="0.0000000000000000e+00" cType="1" res="-9.9000000000000000e+01" rms="0.0000000000000000e+00" purity="5.4466879367828369e-01" nType="1"/>
            <Node pos="r" depth="3" NCoef="0" IVar="-1" Cut="0.0000000000000000e+00" cType="1" res="-9.9000000000000000e+01" rms="0.0000000000000000e+00" purity="3.7814825773239136e-01" nType="-1"/>
          </Node>
          <Node pos="r" depth="2" NCoef="0" IVar="5" Cut="1.9219423830509186e-01" cType="1" res="-9.9000000000000000e+01" rms="0.0000000000000000e+00" purity="3.5119649767875671e-01" nType="0">
            <Node pos="l" depth="3" NCoef="0" IVar="-1" Cut="0.0000000000000000e+00" cType="1" res="-9.9000000000000000e+01" rms="0.0000000000000000e+00" purity="6.5766912698745728e-01" nType="1"/>
            <Node pos="r" depth="3" NCoef="0" IVar="-1" Cut="0.0000000000000000e+00" cType="1" res="-9.9000000000000000e+01" rms="0.0000000000000000e+00" purity="4.5310524292290211e-03" nType="-1"/>
          </Node>
        </Node>
        <Node pos="r" depth="1" NCoef="0" IVar="-1" Cut="0.0000000000000000e+00" cType="1" res="-9.9000000000000000e+01" rms="0.0000000000000000e+00" purity="0.0000000000000000e+00" nType="-1"/>
      </Node>
    </BinaryTree>
    <BinaryTree type="DecisionTree" boostWeight="8.9273053392573437e-02" itree="45">
      <Node pos="s" depth="0" NCoef="0" IVar="6" Cut="4.7518517822027206e-02" cType="0" res="-9.9000000000000000e+01" rms="0.0000000000000000e+00" purity="4.8200163245201111e-01" nType="0">
        <Node pos="l" depth="1" NCoef="0" IVar="6" Cut="6.8119317293167114e-01" cType="0" res="-9.9000000000000000e+01" rms="0.0000000000000000e+00" purity="4.9140623211860657e-01" nType="0">
          <Node pos="l" depth="2" NCoef="0" IVar="-1" Cut="0.0000000000000000e+00" cType="1" res="-9.9000000000000000e+01" rms="0.0000000000000000e+00" purity="6.7877233028411865e-01" nType="1"/>
          <Node pos="r" depth="2" NCoef="0" IVar="-1" Cut="-3.1749436855316162e+00" cType="1" res="-9.9000000000000000e+01" rms="0.0000000000000000e+00" purity="4.7545397281646729e-01" nType="-1"/>
        </Node>
        <Node pos="r" depth="1" NCoef="0" IVar="-1" Cut="0.0000000000000000e+00" cType="1" res="-9.9000000000000000e+01" rms="0.0000000000000000e+00" purity="3.1929498910903931e-01" nType="-1"/>
      </Node>
    </BinaryTree>
    <BinaryTree type="DecisionTree" boostWeight="1.6905501132701437e-01" itree="46">
      <Node pos="s" depth="0" NCoef="0" IVar="6" Cut="4.7518517822027206e-02" cType="0" res="-9.9000000000000000e+01" rms="0.0000000000000000e+00" purity="5.0100040435791016e-01" nType="0">
        <Node pos="l" depth="1" NCoef="0" IVar="5" Cut="3.7101775407791138e-01" cType="0" res="-9.9000000000000000e+01" rms="0.0000000000000000e+00" purity="5.1024335622787476e-01" nType="0">
          <Node pos="l" depth="2" NCoef="0" IVar="6" Cut="5.8484876155853271e-01" cType="1" res="-9.9000000000000000e+01" rms="0.0000000000000000e+00" purity="5.2743500471115112e-01" nType="0">
            <Node pos="l" depth="3" NCoef="0" IVar="-1" Cut="0.0000000000000000e+00" cType="1" res="-9.9000000000000000e+01" rms="0.0000000000000000e+00" purity="5.4932034015655518e-01" nType="1"/>
            <Node pos="r" depth="3" NCoef="0" IVar="-1" Cut="0.0000000000000000e+00" cType="1" res="-9.9000000000000000e+01" rms="0.0000000000000000e+00" purity="3.8693127036094666e-01" nType="-1"/>
          </Node>
          <Node pos="r" depth="2" NCoef="0" IVar="6" Cut="6.8119317293167114e-01" cType="0" res="-9.9000000000000000e+01" rms="0.0000000000000000e+00" purity="3.9728766679763794e-01" nType="0">
            <Node pos="l" depth="3" NCoef="0" IVar="-1" Cut="0.0000000000000000e+00" cType="1" res="-9.9000000000000000e+01" rms="0.0000000000000000e+00" purity="7.0045959949493408e-01" nType="1"/>
            <Node pos="r" depth="3" NCoef="0" IVar="-1" Cut="0.0000000000000000e+00" cType="1" res="-9.9000000000000000e+01" rms="0.0000000000000000e+00" purity="2.7191656827926636e-01" nType="-1"/>
          </Node>
        </Node>
        <Node pos="r" depth="1" NCoef="0" IVar="-1" Cut="0.0000000000000000e+00" cType="1" res="-9.9000000000000000e+01" rms="0.0000000000000000e+00" purity="3.3900293707847595e-01" nType="-1"/>
      </Node>
    </BinaryTree>
    <BinaryTree type="DecisionTree" boostWeight="8.3763986099315929e-02" itree="47">
      <Node pos="s" depth="0" NCoef="0" IVar="0" Cut="-8.8977060317993164e+00" cType="0" res="-9.9000000000000000e+01" rms="0.0000000000000000e+00" purity="4.7989085316658020e-01" nType="0">
        <Node pos="l" depth="1" NCoef="0" IVar="4" Cut="1.6683061420917511e-01" cType="0" res="-9.9000000000000000e+01" rms="0.0000000000000000e+00" purity="4.8766249418258667e-01" nType="0">
          <Node pos="l" depth="2" NCoef="0" IVar="-1" Cut="0.0000000000000000e+00" cType="1" res="-9.9000000000000000e+01" rms="0.0000000000000000e+00" purity="6.0804730653762817e-01" nType="1"/>
          <Node pos="r" depth="2" NCoef="0" IVar="-1" Cut="3.8206788897514343e-01" cType="0" res="-9.9000000000000000e+01" rms="0.0000000000000000e+00" purity="4.7368678450584412e-01" nType="-1"/>
        </Node>
        <Node pos="r" depth="1" NCoef="0" IVar="-1" Cut="0.0000000000000000e+00" cType="1" res="-9.9000000000000000e+01" rms="0.0000000000000000e+00" purity="2.6992046833038330e-01" nType="-1"/>
      </Node>
    </BinaryTree>
    <BinaryTree type="DecisionTree" boostWeight="6.7894478050324697e-02" itree="48">
      <Node pos="s" depth="0" NCoef="0" IVar="0" Cut="-8.8977060317993164e+00" cType="0" res="-9.9000000000000000e+01" rms="0.0000000000000000e+00" purity="4.9660927057266235e-01" nType="0">
        <Node pos="l" depth="1" NCoef="0" IVar="6" Cut="7.1277773380279541e-01" cType="1" res="-9.9000000000000000e+01" rms="0.0000000000000000e+00" purity="5.0424975156784058e-01" nType="0">
          <Node pos="l" depth="2" NCoef="0" IVar="6" Cut="6.1056292057037354e-01" cType="0" res="-9.9000000000000000e+01" rms="0.0000000000000000e+00" purity="5.1052689552307129e-01" nType="0">
            <Node pos="l" depth="3" NCoef="0" IVar="-1" Cut="0.0000000000000000e+00" cType="1" res="-9.9000000000000000e+01" rms="0.0000000000000000e+00" purity="6.5753072500228882e-01" nType="1"/>
            <Node pos="r" depth="3" NCoef="0" IVar="-1" Cut="0.0000000000000000e+00" cType="1" res="-9.9000000000000000e+01" rms="0.0000000000000000e+00" purity="4.9361583590507507e-01" nType="-1"/>
          </Node>
          <Node pos="r" depth="2" NCoef="0" IVar="-1" Cut="0.0000000000000000e+00" cType="1" res="-9.9000000000000000e+01" rms="0.0000000000000000e+00" purity="2.8122165799140930e-01" nType="-1"/>
        </Node>
        <Node pos="r" depth="1" NCoef="0" IVar="-1" Cut="0.0000000000000000e+00" cType="1" res="-9.9000000000000000e+01" rms="0.0000000000000000e+00" purity="2.8674164414405823e-01" nType="-1"/>
      </Node>
    </BinaryTree>
    <BinaryTree type="DecisionTree" boostWeight="6.6103979199640742e-02" itree="49">
      <Node pos="s" depth="0" NCoef="0" IVar="0" Cut="-8.8977060317993164e+00" cType="0" res="-9.9000000000000000e+01" rms="0.0000000000000000e+00" purity="5.1031452417373657e-01" nType="0">
        <Node pos="l" depth="1" NCoef="0" IVar="2" Cut="2.7506601810455322e+00" cType="1" res="-9.9000000000000000e+01" rms="0.0000000000000000e+00" purity="5.1784485578536987e-01" nType="0">
          <Node pos="l" depth="2" NCoef="0" IVar="5" Cut="7.4443441629409790e-01" cType="0" res="-9.9000000000000000e+01" rms="0.0000000000000000e+00" purity="5.2050507068634033e-01" nType="0">
            <Node pos="l" depth="3" NCoef="0" IVar="-1" Cut="0.0000000000000000e+00" cType="1" res="-9.9000000000000000e+01" rms="0.0000000000000000e+00" purity="6.0274630784988403e-01" nType="1"/>
            <Node pos="r" depth="3" NCoef="0" IVar="-1" Cut="0.0000000000000000e+00" cType="1" res="-9.9000000000000000e+01" rms="0.0000000000000000e+00" purity="4.9737605452537537e-01" nType="-1"/>
          </Node>
          <Node pos="r" depth="2" NCoef="0" IVar="-1" Cut="0.0000000000000000e+00" cType="1" res="-9.9000000000000000e+01" rms="0.0000000000000000e+00" purity="0.0000000000000000e+00" nType="-1"/>
        </Node>
        <Node pos="r" depth="1" NCoef="0" IVar="-1" Cut="0.0000000000000000e+00" cType="1" res="-9.9000000000000000e+01" rms="0.0000000000000000e+00" purity="3.0082598328590393e-01" nType="-1"/>
      </Node>
    </BinaryTree>
    <BinaryTree type="DecisionTree" boostWeight="1.0076929358047917e-01" itree="50">
      <Node pos="s" depth="0" NCoef="0" IVar="0" Cut="-8.8977060317993164e+00" cType="0" res="-9.9000000000000000e+01" rms="0.0000000000000000e+00" purity="5.1991301774978638e-01" nType="0">
        <Node pos="l" depth="1" NCoef="0" IVar="2" Cut="2.7506601810455322e+00" cType="1" res="-9.9000000000000000e+01" rms="0.0000000000000000e+00" purity="5.2719813585281372e-01" nType="0">
          <Node pos="l" depth="2" NCoef="0" IVar="2" Cut="1.0381758213043213e+00" cType="1" res="-9.9000000000000000e+01" rms="0.0000000000000000e+00" purity="5.2982121706008911e-01" nType="0">
            <Node pos="l" depth="3" NCoef="0" IVar="-1" Cut="0.0000000000000000e+00" cType="1" res="-9.9000000000000000e+01" rms="0.0000000000000000e+00" purity="5.3858417272567749e-01" nType="1"/>
            <Node pos="r" depth="3" NCoef="0" IVar="-1" Cut="0.0000000000000000e+00" cType="1" res="-9.9000000000000000e+01" rms="0.0000000000000000e+00" purity="3.7708380818367004e-01" nType="-1"/>
          </Node>
          <Node pos="r" depth="2" NCoef="0" IVar="-1" Cut="0.0000000000000000e+00" cType="1" res="-9.9000000000000000e+01" rms="0.0000000000000000e+00" purity="0.0000000000000000e+00" nType="-1"/>
        </Node>
        <Node pos="r" depth="1" NCoef="0" IVar="-1" Cut="0.0000000000000000e+00" cType="1" res="-9.9000000000000000e+01" rms="0.0000000000000000e+00" purity="3.1490990519523621e-01" nType="-1"/>
      </Node>
    </BinaryTree>
    <BinaryTree type="DecisionTree" boostWeight="1.6740389152870552e-01" itree="51">
      <Node pos="s" depth="0" NCoef="0" IVar="2" Cut="2.7506601810455322e+00" cType="1" res="-9.9000000000000000e+01" rms="0.0000000000000000e+00" purity="4.9933162331581116e-01" nType="0">
        <Node pos="l" depth="1" NCoef="0" IVar="2" Cut="1.2977197766304016e-01" cType="1" res="-9.9000000000000000e+01" rms="0.0000000000000000e+00" purity="5.0178706645965576e-01" nType="0">
          <Node pos="l" depth="2" NCoef="0" IVar="6" Cut="3.8014814257621765e-01" cType="0" res="-9.9000000000000000e+01" rms="0.0000000000000000e+00" purity="5.3506082296371460e-01" nType="0">
            <Node pos="l" depth="3" NCoef="0" IVar="-1" Cut="0.0000000000000000e+00" cType="1" res="-9.9000000000000000e+01" rms="0.0000000000000000e+00" purity="6.5612143278121948e-01" nType="1"/>
            <Node pos="r" depth="3" NCoef="0" IVar="-1" Cut="0.0000000000000000e+00" cType="1" res="-9.9000000000000000e+01" rms="0.0000000000000000e+00" purity="4.7691890597343445e-01" nType="-1"/>
          </Node>
          <Node pos="r" depth="2" NCoef="0" IVar="6" Cut="3.2284271717071533e-01" cType="1" res="-9.9000000000000000e+01" rms="0.0000000000000000e+00" purity="4.6521618962287903e-01" nType="0">
            <Node pos="l" depth="3" NCoef="0" IVar="-1" Cut="0.0000000000000000e+00" cType="1" res="-9.9000000000000000e+01" rms="0.0000000000000000e+00" purity="5.4368954896926880e-01" nType="1"/>
            <Node pos="r" depth="3" NCoef="0" IVar="-1" Cut="0.0000000000000000e+00" cType="1" res="-9.9000000000000000e+01" rms="0.0000000000000000e+00" purity="2.7162316441535950e-01" nType="-1"/>
          </Node>
        </Node>
        <Node pos="r" depth="1" NCoef="0" IVar="-1" Cut="0.0000000000000000e+00" cType="1" res="-9.9000000000000000e+01" rms="0.0000000000000000e+00" purity="0.0000000000000000e+00" nType="-1"/>
      </Node>
    </BinaryTree>
    <BinaryTree type="DecisionTree" boostWeight="1.1836284699518185e-01" itree="52">
      <Node pos="s" depth="0" NCoef="0" IVar="2" Cut="2.7506601810455322e+00" cType="1" res="-9.9000000000000000e+01" rms="0.0000000000000000e+00" purity="4.9878200888633728e-01" nType="0">
        <Node pos="l" depth="1" NCoef="0" IVar="2" Cut="1.2977197766304016e-01" cType="1" res="-9.9000000000000000e+01" rms="0.0000000000000000e+00" purity="5.0106066465377808e-01" nType="0">
          <Node pos="l" depth="2" NCoef="0" IVar="1" Cut="-5.8097786903381348e+00" cType="1" res="-9.9000000000000000e+01" rms="0.0000000000000000e+00" purity="5.5027693510055542e-01" nType="0">
            <Node pos="l" depth="3" NCoef="0" IVar="-1" Cut="0.0000000000000000e+00" cType="1" res="-9.9000000000000000e+01" rms="0.0000000000000000e+00" purity="6.2825721502304077e-01" nType="1"/>
            <Node pos="r" depth="3" NCoef="0" IVar="-1" Cut="0.0000000000000000e+00" cType="1" res="-9.9000000000000000e+01" rms="0.0000000000000000e+00" purity="4.9135136604309082e-01" nType="-1"/>
          </Node>
          <Node pos="r" depth="2" NCoef="0" IVar="-1" Cut="-6.7054262161254883e+00" cType="0" res="-9.9000000000000000e+01" rms="0.0000000000000000e+00" purity="4.4668564200401306e-01" nType="-1"/>
        </Node>
        <Node pos="r" depth="1" NCoef="0" IVar="-1" Cut="0.0000000000000000e+00" cType="1" res="-9.9000000000000000e+01" rms="0.0000000000000000e+00" purity="0.0000000000000000e+00" nType="-1"/>
      </Node>
    </BinaryTree>
    <BinaryTree type="DecisionTree" boostWeight="1.2874796660348364e-01" itree="53">
      <Node pos="s" depth="0" NCoef="0" IVar="1" Cut="-7.3227043151855469e+00" cType="0" res="-9.9000000000000000e+01" rms="0.0000000000000000e+00" purity="5.1514971256256104e-01" nType="0">
        <Node pos="l" depth="1" NCoef="0" IVar="0" Cut="-7.0844483375549316e+00" cType="0" res="-9.9000000000000000e+01" rms="0.0000000000000000e+00" purity="5.2583485841751099e-01" nType="0">
          <Node pos="l" depth="2" NCoef="0" IVar="-1" Cut="-6.8200120925903320e+00" cType="1" res="-9.9000000000000000e+01" rms="0.0000000000000000e+00" purity="5.4724431037902832e-01" nType="1"/>
          <Node pos="r" depth="2" NCoef="0" IVar="0" Cut="-7.4301533699035645e+00" cType="1" res="-9.9000000000000000e+01" rms="0.0000000000000000e+00" purity="4.6535274386405945e-01" nType="0">
            <Node pos="l" depth="3" NCoef="0" IVar="-1" Cut="0.0000000000000000e+00" cType="1" res="-9.9000000000000000e+01" rms="0.0000000000000000e+00" purity="5.4588323831558228e-01" nType="1"/>
            <Node pos="r" depth="3" NCoef="0" IVar="-1" Cut="0.0000000000000000e+00" cType="1" res="-9.9000000000000000e+01" rms="0.0000000000000000e+00" purity="2.9320031404495239e-01" nType="-1"/>
          </Node>
        </Node>
        <Node pos="r" depth="1" NCoef="0" IVar="-1" Cut="0.0000000000000000e+00" cType="1" res="-9.9000000000000000e+01" rms="0.0000000000000000e+00" purity="3.9361652731895447e-01" nType="-1"/>
      </Node>
    </BinaryTree>
    <BinaryTree type="DecisionTree" boostWeight="6.1415748972623425e-02" itree="54">
      <Node pos="s" depth="0" NCoef="0" IVar="6" Cut="7.1277773380279541e-01" cType="1" res="-9.9000000000000000e+01" rms="0.0000000000000000e+00" purity="4.9306860566139221e-01" nType="0">
        <Node pos="l" depth="1" NCoef="0" IVar="6" Cut="6.1056292057037354e-01" cType="0" res="-9.9000000000000000e+01" rms="0.0000000000000000e+00" purity="4.9849534034729004e-01" nType="0">
          <Node pos="l" depth="2" NCoef="0" IVar="-1" Cut="0.0000000000000000e+00" cType="1" res="-9.9000000000000000e+01" rms="0.0000000000000000e+00" purity="6.2206935882568359e-01" nType="1"/>
          <Node pos="r" depth="2" NCoef="0" IVar="-1" Cut="-3.1749436855316162e+00" cType="1" res="-9.9000000000000000e+01" rms="0.0000000000000000e+00" purity="4.8482850193977356e-01" nType="-1"/>
        </Node>
        <Node pos="r" depth="1" NCoef="0" IVar="-1" Cut="0.0000000000000000e+00" cType="1" res="-9.9000000000000000e+01" rms="0.0000000000000000e+00" purity="2.6871699094772339e-01" nType="-1"/>
      </Node>
    </BinaryTree>
    <BinaryTree type="DecisionTree" boostWeight="2.0762903750513578e-01" itree="55">
      <Node pos="s" depth="0" NCoef="0" IVar="6" Cut="7.1277773380279541e-01" cType="1" res="-9.9000000000000000e+01" rms="0.0000000000000000e+00" purity="5.0544315576553345e-01" nType="0">
        <Node pos="l" depth="1" NCoef="0" IVar="1" Cut="-4.7303538322448730e+00" cType="0" res="-9.9000000000000000e+01" rms="0.0000000000000000e+00" purity="5.1080459356307983e-01" nType="0">
          <Node pos="l" depth="2" NCoef="0" IVar="0" Cut="-4.7171173095703125e+00" cType="0" res="-9.9000000000000000e+01" rms="0.0000000000000000e+00" purity="5.5748766660690308e-01" nType="0">
            <Node pos="l" depth="3" NCoef="0" IVar="-1" Cut="0.0000000000000000e+00" cType="1" res="-9.9000000000000000e+01" rms="0.0000000000000000e+00" purity="6.8768435716629028e-01" nType="1"/>
            <Node pos="r" depth="3" NCoef="0" IVar="-1" Cut="0.0000000000000000e+00" cType="1" res="-9.9000000000000000e+01" rms="0.0000000000000000e+00" purity="4.0892007946968079e-01" nType="-1"/>
          </Node>
          <Node pos="r" depth="2" NCoef="0" IVar="6" Cut="2.7136129140853882e-01" cType="1" res="-9.9000000000000000e+01" rms="0.0000000000000000e+00" purity="4.8656520247459412e-01" nType="0">
            <Node pos="l" depth="3" NCoef="0" IVar="-1" Cut="0.0000000000000000e+00" cType="1" res="-9.9000000000000000e+01" rms="0.0000000000000000e+00" purity="5.3888636827468872e-01" nType="1"/>
            <Node pos="r" depth="3" NCoef="0" IVar="-1" Cut="0.0000000000000000e+00" cType="1" res="-9.9000000000000000e+01" rms="0.0000000000000000e+00" purity="2.4772916734218597e-01" nType="-1"/>
          </Node>
        </Node>
        <Node pos="r" depth="1" NCoef="0" IVar="-1" Cut="0.0000000000000000e+00" cType="1" res="-9.9000000000000000e+01" rms="0.0000000000000000e+00" purity="2.8095570206642151e-01" nType="-1"/>
      </Node>
    </BinaryTree>
    <BinaryTree type="DecisionTree" boostWeight="1.9153758023015222e-01" itree="56">
      <Node pos="s" depth="0" NCoef="0" IVar="1" Cut="-4.7303538322448730e+00" cType="0" res="-9.9000000000000000e+01" rms="0.0000000000000000e+00" purity="4.8387008905410767e-01" nType="0">
        <Node pos="l" depth="1" NCoef="0" IVar="0" Cut="-4.7171173095703125e+00" cType="0" res="-9.9000000000000000e+01" rms="0.0000000000000000e+00" purity="5.3701871633529663e-01" nType="0">
          <Node pos="l" depth="2" NCoef="0" IVar="0" Cut="-3.9853124618530273e+00" cType="1" res="-9.9000000000000000e+01" rms="0.0000000000000000e+00" purity="6.2308210134506226e-01" nType="0">
            <Node pos="l" depth="3" NCoef="0" IVar="-1" Cut="0.0000000000000000e+00" cType="1" res="-9.9000000000000000e+01" rms="0.0000000000000000e+00" purity="7.2185266017913818e-01" nType="1"/>
            <Node pos="r" depth="3" NCoef="0" IVar="-1" Cut="0.0000000000000000e+00" cType="1" res="-9.9000000000000000e+01" rms="0.0000000000000000e+00" purity="4.6426275372505188e-01" nType="-1"/>
          </Node>
          <Node pos="r" depth="2" NCoef="0" IVar="-1" Cut="9.6640425920486450e-01" cType="1" res="-9.9000000000000000e+01" rms="0.0000000000000000e+00" purity="4.4185784459114075e-01" nType="-1"/>
        </Node>
        <Node pos="r" depth="1" NCoef="0" IVar="5" Cut="8.6936646699905396e-01" cType="0" res="-9.9000000000000000e+01" rms="0.0000000000000000e+00" purity="4.5618557929992676e-01" nType="0">
          <Node pos="l" depth="2" NCoef="0" IVar="-1" Cut="-6.0339155197143555e+00" cType="1" res="-9.9000000000000000e+01" rms="0.0000000000000000e+00" purity="9.0572601556777954e-01" nType="1"/>
          <Node pos="r" depth="2" NCoef="0" IVar="-1" Cut="-6.1170878410339355e+00" cType="1" res="-9.9000000000000000e+01" rms="0.0000000000000000e+00" purity="4.3007770180702209e-01" nType="-1"/>
        </Node>
      </Node>
    </BinaryTree>
    <BinaryTree type="DecisionTree" boostWeight="1.0747093374130477e-01" itree="57">
      <Node pos="s" depth="0" NCoef="0" IVar="2" Cut="2.7506601810455322e+00" cType="1" res="-9.9000000000000000e+01" rms="0.0000000000000000e+00" purity="5.1789945363998413e-01" nType="0">
        <Node pos="l" depth="1" NCoef="0" IVar="2" Cut="1.2977197766304016e-01" cType="1" res="-9.9000000000000000e+01" rms="0.0000000000000000e+00" purity="5.2014648914337158e-01" nType="0">
          <Node pos="l" depth="2" NCoef="0" IVar="-1" Cut="1.2284354306757450e-02" cType="1" res="-9.9000000000000000e+01" rms="0.0000000000000000e+00" purity="5.6656950712203979e-01" nType="1"/>
          <Node pos="r" depth="2" NCoef="0" IVar="1" Cut="-6.7054262161254883e+00" cType="0" res="-9.9000000000000000e+01" rms="0.0000000000000000e+00" purity="4.6930658817291260e-01" nType="0">
            <Node pos="l" depth="3" NCoef="0" IVar="-1" Cut="0.0000000000000000e+00" cType="1" res="-9.9000000000000000e+01" rms="0.0000000000000000e+00" purity="5.0241988897323608e-01" nType="1"/>
            <Node pos="r" depth="3" NCoef="0" IVar="-1" Cut="0.0000000000000000e+00" cType="1" res="-9.9000000000000000e+01" rms="0.0000000000000000e+00" purity="3.4875757992267609e-02" nType="-1"/>
          </Node>
        </Node>
        <Node pos="r" depth="1" NCoef="0" IVar="-1" Cut="0.0000000000000000e+00" cType="1" res="-9.9000000000000000e+01" rms="0.0000000000000000e+00" purity="0.0000000000000000e+00" nType="-1"/>
      </Node>
    </BinaryTree>
    <BinaryTree type="DecisionTree" boostWeight="2.0290151256366112e-01" itree="58">
      <Node pos="s" depth="0" NCoef="0" IVar="4" Cut="1.1923498660326004e-01" cType="0" res="-9.9000000000000000e+01" rms="0.0000000000000000e+00" purity="4.9305644631385803e-01" nType="0">
        <Node pos="l" depth="1" NCoef="0" IVar="0" Cut="-5.6458649635314941e+00" cType="1" res="-9.9000000000000000e+01" rms="0.0000000000000000e+00" purity="5.6205517053604126e-01" nType="0">
          <Node pos="l" depth="2" NCoef="0" IVar="-1" Cut="0.0000000000000000e+00" cType="1" res="-9.9000000000000000e+01" rms="0.0000000000000000e+00" purity="6.5314799547195435e-01" nType="1"/>
          <Node pos="r" depth="2" NCoef="0" IVar="-1" Cut="0.0000000000000000e+00" cType="1" res="-9.9000000000000000e+01" rms="0.0000000000000000e+00" purity="3.9672106504440308e-01" nType="-1"/>
        </Node>
        <Node pos="r" depth="1" NCoef="0" IVar="6" Cut="1.7252397537231445e-01" cType="0" res="-9.9000000000000000e+01" rms="0.0000000000000000e+00" purity="4.7812640666961670e-01" nType="0">
          <Node pos="l" depth="2" NCoef="0" IVar="0" Cut="-7.6888675689697266e+00" cType="0" res="-9.9000000000000000e+01" rms="0.0000000000000000e+00" purity="5.1921617984771729e-01" nType="0">
            <Node pos="l" depth="3" NCoef="0" IVar="-1" Cut="0.0000000000000000e+00" cType="1" res="-9.9000000000000000e+01" rms="0.0000000000000000e+00" purity="5.4740035533905029e-01" nType="1"/>
            <Node pos="r" depth="3" NCoef="0" IVar="-1" Cut="0.0000000000000000e+00" cType="1" res="-9.9000000000000000e+01" rms="0.0000000000000000e+00" purity="3.3138954639434814e-01" nType="-1"/>
          </Node>
          <Node pos="r" depth="2" NCoef="0" IVar="0" Cut="-6.8666234016418457e+00" cType="1" res="-9.9000000000000000e+01" rms="0.0000000000000000e+00" purity="3.9396250247955322e-01" nType="0">
            <Node pos="l" depth="3" NCoef="0" IVar="-1" Cut="0.0000000000000000e+00" cType="1" res="-9.9000000000000000e+01" rms="0.0000000000000000e+00" purity="5.3875058889389038e-01" nType="1"/>
            <Node pos="r" depth="3" NCoef="0" IVar="-1" Cut="0.0000000000000000e+00" cType="1" res="-9.9000000000000000e+01" rms="0.0000000000000000e+00" purity="1.7982412874698639e-01" nType="-1"/>
          </Node>
        </Node>
      </Node>
    </BinaryTree>
    <BinaryTree type="DecisionTree" boostWeight="1.4358367898977284e-01" itree="59">
      <Node pos="s" depth="0" NCoef="0" IVar="4" Cut="1.1923498660326004e-01" cType="0" res="-9.9000000000000000e+01" rms="0.0000000000000000e+00" purity="4.6650224924087524e-01" nType="0">
        <Node pos="l" depth="1" NCoef="0" IVar="6" Cut="2.3759259283542633e-01" cType="1" res="-9.9000000000000000e+01" rms="0.0000000000000000e+00" purity="5.4875439405441284e-01" nType="0">
          <Node pos="l" depth="2" NCoef="0" IVar="-1" Cut="0.0000000000000000e+00" cType="1" res="-9.9000000000000000e+01" rms="0.0000000000000000e+00" purity="6.3410365581512451e-01" nType="1"/>
          <Node pos="r" depth="2" NCoef="0" IVar="-1" Cut="0.0000000000000000e+00" cType="1" res="-9.9000000000000000e+01" rms="0.0000000000000000e+00" purity="4.4662463665008545e-01" nType="-1"/>
        </Node>
        <Node pos="r" depth="1" NCoef="0" IVar="5" Cut="1.7245560884475708e-01" cType="1" res="-9.9000000000000000e+01" rms="0.0000000000000000e+00" purity="4.4886213541030884e-01" nType="0">
          <Node pos="l" depth="2" NCoef="0" IVar="-1" Cut="0.0000000000000000e+00" cType="1" res="-9.9000000000000000e+01" rms="0.0000000000000000e+00" purity="7.7227014303207397e-01" nType="1"/>
          <Node pos="r" depth="2" NCoef="0" IVar="-1" Cut="3.6251667141914368e-01" cType="0" res="-9.9000000000000000e+01" rms="0.0000000000000000e+00" purity="4.3996602296829224e-01" nType="-1"/>
        </Node>
      </Node>
    </BinaryTree>
    <BinaryTree type="DecisionTree" boostWeight="2.3225342507878441e-01" itree="60">
      <Node pos="s" depth="0" NCoef="0" IVar="3" Cut="1.0199885368347168e+00" cType="1" res="-9.9000000000000000e+01" rms="0.0000000000000000e+00" purity="4.9379900097846985e-01" nType="0">
        <Node pos="l" depth="1" NCoef="0" IVar="3" Cut="1.4564977586269379e-01" cType="1" res="-9.9000000000000000e+01" rms="0.0000000000000000e+00" purity="4.9762755632400513e-01" nType="0">
          <Node pos="l" depth="2" NCoef="0" IVar="0" Cut="-4.8037838935852051e+00" cType="1" res="-9.9000000000000000e+01" rms="0.0000000000000000e+00" purity="5.3809612989425659e-01" nType="0">
            <Node pos="l" depth="3" NCoef="0" IVar="-1" Cut="0.0000000000000000e+00" cType="1" res="-9.9000000000000000e+01" rms="0.0000000000000000e+00" purity="5.8676820993423462e-01" nType="1"/>
            <Node pos="r" depth="3" NCoef="0" IVar="-1" Cut="0.0000000000000000e+00" cType="1" res="-9.9000000000000000e+01" rms="0.0000000000000000e+00" purity="3.4688428044319153e-01" nType="-1"/>
          </Node>
          <Node pos="r" depth="2" NCoef="0" IVar="0" Cut="-5.3188810348510742e+00" cType="0" res="-9.9000000000000000e+01" rms="0.0000000000000000e+00" purity="4.2157000303268433e-01" nType="0">
            <Node pos="l" depth="3" NCoef="0" IVar="-1" Cut="0.0000000000000000e+00" cType="1" res="-9.9000000000000000e+01" rms="0.0000000000000000e+00" purity="5.6588828563690186e-01" nType="1"/>
            <Node pos="r" depth="3" NCoef="0" IVar="-1" Cut="0.0000000000000000e+00" cType="1" res="-9.9000000000000000e+01" rms="0.0000000000000000e+00" purity="3.1975936889648438e-01" nType="-1"/>
          </Node>
        </Node>
        <Node pos="r" depth="1" NCoef="0" IVar="-1" Cut="-6.0522069931030273e+00" cType="1" res="-9.9000000000000000e+01" rms="0.0000000000000000e+00" purity="1.8449671566486359e-01" nType="-1"/>
      </Node>
    </BinaryTree>
    <BinaryTree type="DecisionTree" boostWeight="1.1763978446719030e-01" itree="61">
      <Node pos="s" depth="0" NCoef="0" IVar="4" Cut="1.1923498660326004e-01" cType="0" res="-9.9000000000000000e+01" rms="0.0000000000000000e+00" purity="4.7512978315353394e-01" nType="0">
